{"learner":{"attributes":{"scikit_learn":"{\"_estimator_type\": \"classifier\"}"},"feature_names":["log_return_5d","log_return_20d","volatility_20d","credit_spread","dollar_momentum","regime_label"],"feature_types":["float","float","float","float","float","float"],"gradient_booster":{"model":{"cats":{"enc":[],"feature_segments":[],"sorted_idx":[]},"gbtree_model_param":{"num_parallel_tree":"1","num_trees":"9"},"iteration_indptr":[0,3,6,9],"tree_info":[0,1,2,0,1,2,0,1,2],"trees":[{"base_weights":[1.3045988E-2,1.9100702E-1,-5.361091E-2,-5.6212103E-1,2.3823935E-1,-1.6915867E-1,1.8897131E-2,-6.553916E-1,1.833583E-1,4.3794203E-1,9.9269785E-2,-4.5629242E-1,-7.956443E-2,5.2672505E-2,-2.1527223E-1,-3.626005E-2,-7.888085E-3,-3.0690841E-3,1.7612731E-2,9.097836E-3,3.6017098E-2,-3.1566774E-3,8.766796E-3,-2.7466968E-2,-6.313012E-3,-1.2530962E-3,-1.4712909E-2,-3.5455786E-3,5.7044555E-3,-2.6188985E-2,-3.3797056E-3],"categories":[],"categories_nodes":[],"categories_segments":[],"categories_sizes":[],"default_left":[0,0,0,0,0,0,0,0,0,0,0,0,0,0,0,0,0,0,0,0,0,0,0,0,0,0,0,0,0,0,0],"id":0,"left_children":[1,3,5,7,9,11,13,15,17,19,21,23,25,27,29,-1,-1,-1,-1,-1,-1,-1,-1,-1,-1,-1,-1,-1,-1,-1,-1],"loss_changes":[2.0038551E1,1.6507597E1,1.0300764E1,2.0296078E0,1.199658E1,1.2157602E1,5.9914465E0,7.410927E-1,1.8015116E-1,1.2716736E1,3.1872504E0,3.385851E0,4.234172E0,5.029661E0,4.3158073E0,0E0,0E0,0E0,0E0,0E0,0E0,0E0,0E0,0E0,0E0,0E0,0E0,0E0,0E0,0E0,0E0],"parents":[2147483647,0,0,1,1,2,2,3,3,4,4,5,5,6,6,7,7,8,8,9,9,10,10,11,11,12,12,13,13,14,14],"right_children":[2,4,6,8,10,12,14,16,18,20,22,24,26,28,30,-1,-1,-1,-1,-1,-1,-1,-1,-1,-1,-1,-1,-1,-1,-1,-1],"split_conditions":[1.0426805E-2,5.956054E-3,1.4233711E-2,2.3476994E-2,2E0,1E0,5.501195E-2,1.1685992E-2,2.5795074E-2,-8.4922044E-4,2.303335E-3,1.3408275E-2,1.5962336E-2,-2.3251748E-2,2.0383324E-2,-3.626005E-2,-7.888085E-3,-3.0690841E-3,1.7612731E-2,9.097836E-3,3.6017098E-2,-3.1566774E-3,8.766796E-3,-2.7466968E-2,-6.313012E-3,-1.2530962E-3,-1.4712909E-2,-3.5455786E-3,5.7044555E-3,-2.6188985E-2,-3.3797056E-3],"split_indices":[2,2,2,0,5,5,0,3,0,3,3,2,3,0,2,0,0,0,0,0,0,0,0,0,0,0,0,0,0,0,0],"split_type":[0,0,0,0,0,0,0,0,0,0,0,0,0,0,0,0,0,0,0,0,0,0,0,0,0,0,0,0,0,0,0],"sum_hessian":[1.687396E3,4.592968E2,1.2280992E3,2.6461546E1,4.3283527E2,4.7300012E2,7.550991E2,2.3626379E1,2.8351655E0,1.7672533E2,2.5610995E2,1.1151651E2,3.614836E2,6.6059357E2,9.4505516E1,2.0318687E1,3.3076932E0,1.4175828E0,1.4175828E0,9.356046E1,8.3164856E1,8.174728E1,1.7436269E2,8.647255E1,2.5043962E1,2.891869E2,7.229672E1,2.192528E2,4.4134076E2,2.9769238E1,6.473628E1],"tree_param":{"num_deleted":"0","num_feature":"6","num_nodes":"31","size_leaf_vector":"1"}},{"base_weights":[1.60959E-2,-1.3634782E-1,7.8824475E-2,-1.7087227E-2,-3.056518E-1,1.7658143E-1,-7.018246E-2,-1.8767571E-1,2.567716E-1,-3.5773215E-1,-3.0635975E-2,2.2151561E-1,-1.9489208E-1,-1.1996285E-1,1.5898493E-1,1.5515377E-3,-1.327829E-2,3.330048E-2,4.2897323E-3,5.270808E-3,-1.8820185E-2,1.5759872E-2,-1.9087253E-2,6.5517067E-3,2.3483269E-2,-1.3349811E-2,4.9294353E-2,1.908378E-3,-1.1370849E-2,-4.047207E-3,2.463069E-2],"categories":[],"categories_nodes":[],"categories_segments":[],"categories_sizes":[],"default_left":[0,0,0,0,0,0,0,0,0,0,0,0,0,0,0,0,0,0,0,0,0,0,0,0,0,0,0,0,0,0,0],"id":1,"left_children":[1,3,5,7,9,11,13,15,17,19,21,23,25,27,29,-1,-1,-1,-1,-1,-1,-1,-1,-1,-1,-1,-1,-1,-1,-1,-1],"loss_changes":[7.3769016E0,4.536462E0,7.9711857E0,6.2629623E0,1.3196831E0,5.5550117E0,2.4965153E0,1.4144473E0,3.5450666E0,7.1434975E-1,2.049251E0,6.5631294E0,3.3422642E0,3.0498874E0,3.176532E0,0E0,0E0,0E0,0E0,0E0,0E0,0E0,0E0,0E0,0E0,0E0,0E0,0E0,0E0,0E0,0E0],"parents":[2147483647,0,0,1,1,2,2,3,3,4,4,5,5,6,6,7,7,8,8,9,9,10,10,11,11,12,12,13,13,14,14],"right_children":[2,4,6,8,10,12,14,16,18,20,22,24,26,28,30,-1,-1,-1,-1,-1,-1,-1,-1,-1,-1,-1,-1,-1,-1,-1,-1],"split_conditions":[-7.00412E-3,6.9998193E-4,1.1393581E-2,-3.3626843E-2,4.3498565E-2,7.269702E-2,9.120855E-2,-5.862308E-2,-1.2992191E-2,-9.0351015E-2,7.092242E-2,2.8670412E-2,2.2922397E-1,1.6952982E-2,2.7297802E-2,1.5515377E-3,-1.327829E-2,3.330048E-2,4.2897323E-3,5.270808E-3,-1.8820185E-2,1.5759872E-2,-1.9087253E-2,6.5517067E-3,2.3483269E-2,-1.3349811E-2,4.9294353E-2,1.908378E-3,-1.1370849E-2,-4.047207E-3,2.463069E-2],"split_indices":[3,0,3,1,1,1,1,0,1,3,1,1,1,3,3,0,0,0,0,0,0,0,0,0,0,0,0,0,0,0,0],"split_type":[0,0,0,0,0,0,0,0,0,0,0,0,0,0,0,0,0,0,0,0,0,0,0,0,0,0,0,0,0,0,0],"sum_hessian":[7.693106E2,2.2393282E2,5.453778E2,1.3202975E2,9.190306E1,3.2921143E2,2.1616635E2,8.154778E1,5.0481964E1,7.701736E1,1.4885707E1,2.9404666E2,3.5164787E1,1.7798128E2,3.8185074E1,2.1573488E1,5.9974297E1,1.4022767E1,3.6459194E1,2.8045535E0,7.42128E1,7.550721E0,7.334986E0,2.1659782E2,7.744882E1,3.3870377E1,1.2944093E0,7.227119E1,1.0571009E2,2.2652163E1,1.5532911E1],"tree_param":{"num_deleted":"0","num_feature":"6","num_nodes":"31","size_leaf_vector":"1"}},{"base_weights":[4.627423E-3,-2.0229161E-1,9.565816E-2,-6.6181734E-2,-3.5248888E-1,-2.3301677E-1,1.2107636E-1,1.6044626E-1,-2.1972284E-1,-4.0802085E-1,-4.893924E-2,2.1115108E-1,-3.9773172E-1,4.050399E-1,1.0065338E-1,2.0747378E-2,-3.902113E-3,4.1387666E-2,-1.2630505E-2,-1.7356357E-2,-3.0436223E-2,-2.803694E-2,1.0209485E-2,-2.4519937E-2,2.055302E-2,-2.7096096E-2,-1.9498495E-3,4.0143725E-2,1.1120661E-2,9.361594E-3,2.887125E-4],"categories":[],"categories_nodes":[],"categories_segments":[],"categories_sizes":[],"default_left":[0,0,0,0,0,0,0,0,0,0,0,0,0,0,0,0,0,0,0,0,0,0,0,0,0,0,0,0,0,0,0],"id":2,"left_children":[1,3,5,7,9,11,13,15,17,19,21,23,25,27,29,-1,-1,-1,-1,-1,-1,-1,-1,-1,-1,-1,-1,-1,-1,-1,-1],"loss_changes":[3.38725E1,1.1208778E1,1.0461366E1,1.01075535E1,4.3790436E0,6.6676035E0,6.6856136E0,7.1631713E0,6.1679125E0,2.4831924E0,5.490171E0,3.7072911E0,3.392334E0,5.4514627E0,8.898131E0,0E0,0E0,0E0,0E0,0E0,0E0,0E0,0E0,0E0,0E0,0E0,0E0,0E0,0E0,0E0,0E0],"parents":[2147483647,0,0,1,1,2,2,3,3,4,4,5,5,6,6,7,7,8,8,9,9,10,10,11,11,12,12,13,13,14,14],"right_children":[2,4,6,8,10,12,14,16,18,20,22,24,26,28,30,-1,-1,-1,-1,-1,-1,-1,-1,-1,-1,-1,-1,-1,-1,-1,-1],"split_conditions":[1.0793038E-2,1.9563392E-3,-3.0369407E-2,8.257035E-3,1.5488016E-2,-1.0421899E-2,-3.383069E-2,2.060169E-3,-5.078036E-2,2.0424934E-2,9.020849E-3,1.5064205E-2,2.56935E-2,1.8762363E-2,4.3521505E-3,2.0747378E-2,-3.902113E-3,4.1387666E-2,-1.2630505E-2,-1.7356357E-2,-3.0436223E-2,-2.803694E-2,1.0209485E-2,-2.4519937E-2,2.055302E-2,-2.7096096E-2,-1.9498495E-3,4.0143725E-2,1.1120661E-2,9.361594E-3,2.887125E-4],"split_indices":[2,4,4,2,3,1,3,3,4,4,2,2,2,2,4,0,0,0,0,0,0,0,0,0,0,0,0,0,0,0,0],"split_type":[0,0,0,0,0,0,0,0,0,0,0,0,0,0,0,0,0,0,0,0,0,0,0,0,0,0,0,0,0,0,0],"sum_hessian":[1.7962589E3,5.484264E2,1.2478325E3,2.8846127E2,2.599651E2,8.898805E1,1.1588445E3,1.1648436E2,1.7197691E2,2.1947054E2,4.0494564E1,2.3996778E1,6.499127E1,7.648973E1,1.0823547E3,5.5992485E1,6.049188E1,4.499396E0,1.6747752E2,1.7047711E2,4.8993423E1,1.2998255E1,2.749631E1,4.9993286E0,1.899745E1,4.5993824E1,1.899745E1,2.2996912E1,5.3492817E1,5.654241E2,5.169306E2],"tree_param":{"num_deleted":"0","num_feature":"6","num_nodes":"31","size_leaf_vector":"1"}},{"base_weights":[5.509159E-3,-3.6297485E-1,1.64393E-2,-4.1265652E-1,3.8373385E-2,2.808584E-2,-1.6787381E-1,-5.0554764E-1,-1.1998949E-1,3.461515E-2,-4.438434E-1,-3.2342917E-1,7.108316E-2,-5.072138E-4,-2.8173288E-2,5.2274945E-3,-2.3159094E-2,-3.103596E-3,3.026133E-3,-3.2556187E-2,-9.351593E-3,4.0879645E-3,-2.4926884E-2,3.0839875E-2,-2.8226427E-3],"categories":[],"categories_nodes":[],"categories_segments":[],"categories_sizes":[],"default_left":[0,0,0,0,0,0,0,0,0,0,0,0,0,0,0,0,0,0,0,0,0,0,0,0,0],"id":3,"left_children":[1,3,5,7,-1,9,11,13,15,17,19,21,23,-1,-1,-1,-1,-1,-1,-1,-1,-1,-1,-1,-1],"loss_changes":[6.862975E0,3.07366E0,3.5561166E0,1.235385E0,0E0,4.8129125E0,3.683268E0,1.0236692E0,1.0345559E0,3.8528993E0,1.0130911E0,4.2854204E0,2.7941685E0,0E0,0E0,0E0,0E0,0E0,0E0,0E0,0E0,0E0,0E0,0E0,0E0],"parents":[2147483647,0,0,1,1,2,2,3,3,5,5,6,6,7,7,8,8,9,9,10,10,11,11,12,12],"right_children":[2,4,6,8,-1,10,12,14,16,18,20,22,24,-1,-1,-1,-1,-1,-1,-1,-1,-1,-1,-1,-1],"split_conditions":[-1.5183048E-1,1.7556328E-2,5.501195E-2,-1.7383175E-2,3.8373385E-2,1.5710181E-1,8.020472E-2,-1.322537E-1,5.7722093E-3,-2.3251748E-2,1.4004806E-2,-9.165354E-3,9.120855E-2,-5.072138E-4,-2.8173288E-2,5.2274945E-3,-2.3159094E-2,-3.103596E-3,3.026133E-3,-3.2556187E-2,-9.351593E-3,4.0879645E-3,-2.4926884E-2,3.0839875E-2,-2.8226427E-3],"split_indices":[1,3,0,3,0,1,1,3,3,0,3,3,1,0,0,0,0,0,0,0,0,0,0,0,0],"split_type":[0,0,0,0,0,0,0,0,0,0,0,0,0,0,0,0,0,0,0,0,0,0,0,0,0],"sum_hessian":[1.7015123E3,4.80892E1,1.6534231E3,4.667294E1,1.4162617E0,1.5559518E3,9.7471245E1,3.487606E1,1.1796879E1,1.5356324E3,2.0319372E1,5.882443E1,3.8646816E1,3.7736092E0,3.1102451E1,7.5515265E0,4.245352E0,3.2422513E2,1.2114073E3,1.0394358E1,9.925015E0,1.7911533E1,4.0912895E1,6.5942764E0,3.205254E1],"tree_param":{"num_deleted":"0","num_feature":"6","num_nodes":"25","size_leaf_vector":"1"}},{"base_weights":[-6.6753426E-3,-1.7399736E-1,5.0558403E-2,-2.697914E-1,1.6066642E-2,1.0206753E-1,-1.7575194E-1,-9.719682E-2,-4.397795E-1,7.508133E-1,-2.1422173E-1,1.6135107E-1,-2.1514826E-1,-2.6732031E-2,-1.095934E-1,5.7849265E-3,-9.61114E-3,-2.6746249E-2,-1.0676966E-2,4.765422E-2,-1.952242E-2,8.348054E-3,-1.2997942E-2,7.1922727E-3,3.005347E-2,-1.6903955E-2,-1.134057E-3,2.6887082E-3,-1.3771324E-2],"categories":[],"categories_nodes":[],"categories_segments":[],"categories_sizes":[],"default_left":[0,0,0,0,0,0,0,0,0,0,0,0,0,0,0,0,0,0,0,0,0,0,0,0,0,0,0,0,0],"id":4,"left_children":[1,3,5,7,9,11,13,15,17,19,21,23,25,-1,27,-1,-1,-1,-1,-1,-1,-1,-1,-1,-1,-1,-1,-1,-1],"loss_changes":[7.46222E0,3.6201773E0,6.787304E0,3.832962E0,1.1581325E1,8.942512E0,2.5065165E0,1.3742821E0,1.3122673E0,4.141488E0,9.528918E-1,2.9899569E0,1.7671628E0,0E0,2.5201554E0,0E0,0E0,0E0,0E0,0E0,0E0,0E0,0E0,0E0,0E0,0E0,0E0,0E0,0E0],"parents":[2147483647,0,0,1,1,2,2,3,3,4,4,5,5,6,6,7,7,8,8,9,9,10,10,11,11,12,12,14,14],"right_children":[2,4,6,8,10,12,14,16,18,20,22,24,26,-1,28,-1,-1,-1,-1,-1,-1,-1,-1,-1,-1,-1,-1,-1,-1],"split_conditions":[-3.3626843E-2,-2.8689078E-3,7.269702E-2,-2.5454506E-2,-1.0521644E-1,1.6952982E-2,-8.4922044E-4,-6.703013E-2,1E0,1E0,-1.506797E-3,6.6113524E-2,1.6535368E-2,-2.6732031E-2,2.8324123E-2,5.7849265E-3,-9.61114E-3,-2.6746249E-2,-1.0676966E-2,4.765422E-2,-1.952242E-2,8.348054E-3,-1.2997942E-2,7.1922727E-3,3.005347E-2,-1.6903955E-2,-1.134057E-3,2.6887082E-3,-1.3771324E-2],"split_indices":[1,3,1,0,1,3,3,0,5,5,3,1,0,0,0,0,0,0,0,0,0,0,0,0,0,0,0,0,0],"split_type":[0,0,0,0,0,0,0,0,0,0,0,0,0,0,0,0,0,0,0,0,0,0,0,0,0,0,0,0,0],"sum_hessian":[7.773063E2,1.975963E2,5.7971E2,1.3110078E2,6.649551E1,4.7267606E2,1.0703394E2,6.583157E1,6.526921E1,1.5328581E1,5.116693E1,3.9866254E2,7.401353E1,1.55576315E1,9.147631E1,2.02488E1,4.5582775E1,4.4985928E1,2.0283281E1,1.31609E1,2.1676807E0,5.197705E0,4.5969223E1,3.8467535E2,1.3987169E1,4.4704025E1,2.9309502E1,4.64211E1,4.5055206E1],"tree_param":{"num_deleted":"0","num_feature":"6","num_nodes":"29","size_leaf_vector":"1"}},{"base_weights":[-1.0984923E-2,-1.863414E-1,6.70156E-2,-1.0309374E-1,-3.9892936E-1,3.5233125E-1,4.2540085E-2,5.0089262E-2,-2.3029874E-1,-4.6956146E-1,-1.6731335E-1,-2.582575E-1,5.4707843E-1,1.0598614E-1,-5.6172714E-2,1.8434763E-2,-5.450493E-3,4.0601317E-2,-1.2798152E-2,-2.4892967E-2,1.8068932E-2,-2.1839535E-3,-4.0966026E-2,2.1193406E-2,-1.7752375E-2,4.489794E-2,1.9931607E-2,-9.414985E-3,7.196048E-3,1.9638697E-2,-7.85046E-3],"categories":[],"categories_nodes":[],"categories_segments":[],"categories_sizes":[],"default_left":[0,0,0,0,0,0,0,0,0,0,0,0,0,0,0,0,0,0,0,0,0,0,0,0,0,0,0,0,0,0,0],"id":5,"left_children":[1,3,5,7,9,11,13,15,17,19,21,23,25,27,29,-1,-1,-1,-1,-1,-1,-1,-1,-1,-1,-1,-1,-1,-1,-1,-1],"loss_changes":[2.4668169E1,9.784943E0,8.702673E0,7.8123055E0,2.4717388E0,1.1852999E1,7.2138166E0,9.288212E0,6.063308E0,2.9758854E0,3.0260868E0,1.7678385E0,3.5483074E0,7.85208E0,2.0475977E1,0E0,0E0,0E0,0E0,0E0,0E0,0E0,0E0,0E0,0E0,0E0,0E0,0E0,0E0,0E0,0E0],"parents":[2147483647,0,0,1,1,2,2,3,3,4,4,5,5,6,6,7,7,8,8,9,9,10,10,11,11,12,12,13,13,14,14],"right_children":[2,4,6,8,10,12,14,16,18,20,22,24,26,28,30,-1,-1,-1,-1,-1,-1,-1,-1,-1,-1,-1,-1,-1,-1,-1,-1],"split_conditions":[1.0793038E-2,9.9593485E-3,-3.258019E-2,8.346109E-3,1.4140624E-2,-9.291978E-3,7.517232E-3,-2.0638667E-3,-5.078036E-2,4.031066E-2,2.8510587E-2,1.7546743E-2,1.744162E-2,-3.0369407E-2,1.21760275E-2,1.8434763E-2,-5.450493E-3,4.0601317E-2,-1.2798152E-2,-2.4892967E-2,1.8068932E-2,-2.1839535E-3,-4.0966026E-2,2.1193406E-2,-1.7752375E-2,4.489794E-2,1.9931607E-2,-9.414985E-3,7.196048E-3,1.9638697E-2,-7.85046E-3],"split_indices":[2,4,3,2,3,4,4,3,4,4,3,2,2,4,2,0,0,0,0,0,0,0,0,0,0,0,0,0,0,0,0],"split_type":[0,0,0,0,0,0,0,0,0,0,0,0,0,0,0,0,0,0,0,0,0,0,0,0,0,0,0,0,0,0,0],"sum_hessian":[1.8015928E3,5.542252E2,1.2473676E3,3.993342E2,1.54891E2,9.749185E1,1.1498756E3,1.8144295E2,2.1789127E2,1.1790741E2,3.6983593E1,2.3496723E1,7.3995125E1,6.99932E2,4.4994366E2,5.99906E1,1.2145234E2,4.4997296E0,2.1339154E2,1.1441193E2,3.4954805E0,3.1985466E1,4.9981265E0,2.4998462E0,2.0996878E1,2.0497187E1,5.349794E1,7.946955E1,6.2046246E2,8.1993774E1,3.679499E2],"tree_param":{"num_deleted":"0","num_feature":"6","num_nodes":"31","size_leaf_vector":"1"}},{"base_weights":[-4.27669E-3,-7.236009E-2,1.2290938E-1,1.8517567E-1,-1.08371586E-1,-4.0447375E-1,1.5555745E-1,-5.0906754E-1,2.5513783E-1,-8.969145E-2,-4.312077E-1,-3.4476053E-2,-5.9170383E-1,2.3726073E-1,1.0595578E-1,-1.1791135E-2,-3.46505E-2,1.9712185E-2,3.6522143E-3,-3.301514E-3,-1.3520596E-2,3.995658E-3,-2.3342391E-2,-1.2173788E-2,3.1082815E-2,-3.5069726E-2,-6.7370445E-3,9.689884E-3,3.0187402E-2,3.4503972E-3,1.7564196E-2],"categories":[],"categories_nodes":[],"categories_segments":[],"categories_sizes":[],"default_left":[0,0,0,0,0,0,0,0,0,0,0,0,0,0,0,0,0,0,0,0,0,0,0,0,0,0,0,0,0,0,0],"id":6,"left_children":[1,3,5,7,9,11,13,15,17,19,21,23,25,27,29,-1,-1,-1,-1,-1,-1,-1,-1,-1,-1,-1,-1,-1,-1,-1,-1],"loss_changes":[1.4696505E1,1.0271902E1,1.0251956E1,6.7344055E0,5.813628E0,2.3886862E0,2.2361784E0,4.790349E-1,3.117095E0,3.9101887E0,9.9945545E-1,1.8993243E0,1.0598221E0,3.2276726E0,3.1393087E0,0E0,0E0,0E0,0E0,0E0,0E0,0E0,0E0,0E0,0E0,0E0,0E0,0E0,0E0,0E0,0E0],"parents":[2147483647,0,0,1,1,2,2,3,3,4,4,5,5,6,6,7,7,8,8,9,9,10,10,11,11,12,12,13,13,14,14],"right_children":[2,4,6,8,10,12,14,16,18,20,22,24,26,28,30,-1,-1,-1,-1,-1,-1,-1,-1,-1,-1,-1,-1,-1,-1,-1,-1],"split_conditions":[9.582549E-3,-2.7019626E-2,-1.4528406E-1,-4.8145905E-2,1.1189425E-1,2.231153E-2,1.7205572E-2,-3.1184252E-2,2E0,3.4536198E-2,-2.2948125E-2,1.9646946E-2,5.5998597E-2,4.0478896E-2,4.2039618E-2,-1.1791135E-2,-3.46505E-2,1.9712185E-2,3.6522143E-3,-3.301514E-3,-1.3520596E-2,3.995658E-3,-2.3342391E-2,-1.2173788E-2,3.1082815E-2,-3.5069726E-2,-6.7370445E-3,9.689884E-3,3.0187402E-2,3.4503972E-3,1.7564196E-2],"split_indices":[4,4,1,1,1,4,4,0,5,0,4,4,4,0,4,0,0,0,0,0,0,0,0,0,0,0,0,0,0,0,0],"split_type":[0,0,0,0,0,0,0,0,0,0,0,0,0,0,0,0,0,0,0,0,0,0,0,0,0,0,0,0,0,0,0],"sum_hessian":[1.6951737E3,1.1044087E3,5.9076495E2,1.3497737E2,9.6943134E2,3.3775826E1,5.5698914E2,1.1782438E1,1.2319494E2,9.1761365E2,5.1817677E1,1.1746646E1,2.2029179E1,2.0897873E2,3.4801044E2,5.6586337E0,6.123804E0,6.918087E1,5.401407E1,8.1258923E2,1.05024414E2,3.2967176E0,4.852096E1,9.385863E0,2.3607826E0,1.7333494E1,4.6956844E0,1.8818945E2,2.0789263E1,3.0357202E2,4.443841E1],"tree_param":{"num_deleted":"0","num_feature":"6","num_nodes":"31","size_leaf_vector":"1"}},{"base_weights":[3.5075834E-3,1.3396515E0,-1.0505409E-2,1.194342E-1,3.0054364E-1,4.9185146E-2,-2.380502E-1,-1.6932069E-1,4.773095E-2,-3.967121E-1,6.467432E-2,-2.6843497E-1,3.8466096E-1,8.339288E-3,-1.8297318E-2,2.8048078E-2,-2.4391865E-2,3.4457713E-2,2.5249266E-3,-9.370947E-3,-1.7823178E-2,4.3683097E-2,2.4639275E-3],"categories":[],"categories_nodes":[],"categories_segments":[],"categories_sizes":[],"default_left":[0,0,0,0,0,0,0,0,0,0,0,0,0,0,0,0,0,0,0,0,0,0,0],"id":7,"left_children":[1,3,5,-1,7,9,11,13,-1,15,17,19,21,-1,-1,-1,-1,-1,-1,-1,-1,-1,-1],"loss_changes":[1.4685673E1,8.155798E0,1.0557767E1,0E0,1.7700506E0,4.2796264E0,3.1595058E0,3.184452E-1,0E0,2.0903661E0,5.242281E0,1.0357676E0,1.2568222E0,0E0,0E0,0E0,0E0,0E0,0E0,0E0,0E0,0E0,0E0],"parents":[2147483647,0,0,1,1,2,2,4,4,5,5,6,6,7,7,9,9,10,10,11,11,12,12],"right_children":[2,4,6,-1,8,10,12,14,-1,16,18,20,22,-1,-1,-1,-1,-1,-1,-1,-1,-1,-1],"split_conditions":[5.3892005E-3,1.56138195E-2,2.0127032E-2,1.194342E-1,5.6106623E-2,-3.152869E-2,2.029969E-1,4.5119426E-3,4.773095E-2,-5.4873366E-2,-1.0894645E-1,1.4987545E-3,4.659591E-3,8.339288E-3,-1.8297318E-2,2.8048078E-2,-2.4391865E-2,3.4457713E-2,2.5249266E-3,-9.370947E-3,-1.7823178E-2,4.3683097E-2,2.4639275E-3],"split_indices":[2,1,2,0,1,3,1,2,0,3,1,1,3,0,0,0,0,0,0,0,0,0,0],"split_type":[0,0,0,0,0,0,0,0,0,0,0,0,0,0,0,0,0,0,0,0,0,0,0],"sum_hessian":[7.825981E2,7.140579E0,7.7545746E2,2.907015E0,4.2335644E0,6.149301E2,1.6052734E2,2.8950171E0,1.338547E0,1.981752E1,5.951126E2,1.536014E2,6.925954E0,1.1245326E0,1.7704847E0,1.2738758E0,1.8543644E1,1.2152415E1,5.829602E2,8.161607E1,7.198531E1,2.164725E0,4.7612286E0],"tree_param":{"num_deleted":"0","num_feature":"6","num_nodes":"23","size_leaf_vector":"1"}},{"base_weights":[-4.6719555E-3,-2.1287353E-1,8.659204E-2,2.0150775E-1,-2.4751173E-1,3.2644945E-1,6.689704E-2,4.525622E-2,-2.5116926E-2,-4.0334722E-1,-1.7048253E-1,4.5346755E-1,-2.8301132E-1,-1.0512646E-1,1.076802E-1,5.1557864E-3,-3.8842957E-2,-1.1403371E-2,-2.8958445E-2,-3.4889067E-4,-1.2720286E-2,4.1051533E-2,1.5966974E-2,-2.518301E-2,3.557884E-2,1.6459655E-2,-8.206124E-3,1.1979378E-2,3.71147E-3],"categories":[],"categories_nodes":[],"categories_segments":[],"categories_sizes":[],"default_left":[0,0,0,0,0,0,0,0,0,0,0,0,0,0,0,0,0,0,0,0,0,0,0,0,0,0,0,0,0],"id":8,"left_children":[1,3,5,7,9,11,13,-1,15,17,19,21,23,25,27,-1,-1,-1,-1,-1,-1,-1,-1,-1,-1,-1,-1,-1,-1],"loss_changes":[3.4292824E1,7.944338E0,5.905756E0,6.8761425E0,6.0295258E0,7.4791346E0,8.155306E0,0E0,3.307703E0,5.0243015E0,4.687092E0,3.630762E0,4.0874777E0,5.767271E0,4.124835E0,0E0,0E0,0E0,0E0,0E0,0E0,0E0,0E0,0E0,0E0,0E0,0E0,0E0,0E0],"parents":[2147483647,0,0,1,1,2,2,3,3,4,4,5,5,6,6,8,8,9,9,10,10,11,11,12,12,13,13,14,14],"right_children":[2,4,6,8,10,12,14,-1,16,18,20,22,24,26,28,-1,-1,-1,-1,-1,-1,-1,-1,-1,-1,-1,-1,-1,-1],"split_conditions":[1.0793038E-2,6.2810117E-3,-3.383069E-2,-1.8946294E-3,-5.275021E-3,-1.2082363E-2,-5.245301E-2,4.525622E-2,8.184535E-2,-1.761209E-3,2.060169E-3,1.7362125E-2,1.5710181E-1,1.316888E-2,1E0,5.1557864E-3,-3.8842957E-2,-1.1403371E-2,-2.8958445E-2,-3.4889067E-4,-1.2720286E-2,4.1051533E-2,1.5966974E-2,-2.518301E-2,3.557884E-2,1.6459655E-2,-8.206124E-3,1.1979378E-2,3.71147E-3],"split_indices":[2,2,3,3,1,1,1,0,1,3,3,2,1,2,5,0,0,0,0,0,0,0,0,0,0,0,0,0,0],"split_type":[0,0,0,0,0,0,0,0,0,0,0,0,0,0,0,0,0,0,0,0,0,0,0,0,0,0,0,0,0],"sum_hessian":[1.8027911E3,5.4900574E2,1.2537854E3,4.19797E1,5.0702606E2,9.3956154E1,1.1598292E3,9.497682E0,3.2482018E1,1.6631758E2,3.4070847E2,7.796365E1,1.59925E1,2.2197217E2,9.3785706E2,2.8485735E1,3.9962833E0,8.443748E1,8.1880104E1,1.159297E2,2.2477878E2,1.9474556E1,5.8489094E1,1.3492742E1,2.4997587E0,2.5998121E1,1.9597404E2,1.8847537E2,7.493817E2],"tree_param":{"num_deleted":"0","num_feature":"6","num_nodes":"29","size_leaf_vector":"1"}}]},"name":"gbtree"},"learner_model_param":{"base_score":"[2.93306E-1,-8.4205663E-1,5.487505E-1]","boost_from_average":"1","num_class":"3","num_feature":"6","num_target":"1"},"objective":{"name":"multi:softprob","softmax_multiclass_param":{"num_class":"3"}}},"version":[3,2,0]}