{"learner":{"attributes":{"scikit_learn":"{\"_estimator_type\": \"classifier\"}"},"feature_names":["log_return_5d","log_return_20d","volatility_20d","credit_spread","dollar_momentum","regime_label"],"feature_types":["float","float","float","float","float","float"],"gradient_booster":{"model":{"cats":{"enc":[],"feature_segments":[],"sorted_idx":[]},"gbtree_model_param":{"num_parallel_tree":"1","num_trees":"3"},"iteration_indptr":[0,3],"tree_info":[0,1,2],"trees":[{"base_weights":[-1.2000577E-2,-8.3895035E-2,1.7929582E-1,1.3836904E-2,-1.12134345E-1,3.0955163E-1,2.4925377E-2,-1.2329205E-1,2.203474E-1,-2.7119685E-2,-1.7944531E-1,1.990911E-1,6.0803837E-1,-1.2353612E-1,1.8262741E-1,-8.772704E-3,2.7753294E-2,1.5513894E-2,-1.1226347E-2,-1.2084257E-2,9.401001E-4,-4.8083602E-3,-1.3400147E-2,2.3318125E-2,-1.569587E-3,5.7844836E-2,1.6306533E-2,-1.1283448E-3,-2.370005E-2,3.5089817E-2,3.8135133E-3],"categories":[],"categories_nodes":[],"categories_segments":[],"categories_sizes":[],"default_left":[0,0,0,0,0,0,0,0,0,0,0,0,0,0,0,0,0,0,0,0,0,0,0,0,0,0,0,0,0,0,0],"id":0,"left_children":[1,3,5,7,9,11,13,15,17,19,21,23,25,27,29,-1,-1,-1,-1,-1,-1,-1,-1,-1,-1,-1,-1,-1,-1,-1,-1],"loss_changes":[1.8180248E1,2.652936E0,7.2534685E0,6.1510596E0,4.2608385E0,6.333605E0,3.917209E0,4.7184973E0,3.5364633E0,3.2618017E0,3.041151E0,8.908409E0,7.729162E0,3.0424476E0,4.422779E0,0E0,0E0,0E0,0E0,0E0,0E0,0E0,0E0,0E0,0E0,0E0,0E0,0E0,0E0,0E0,0E0],"parents":[2147483647,0,0,1,1,2,2,3,3,4,4,5,5,6,6,7,7,8,8,9,9,10,10,11,11,12,12,13,13,14,14],"right_children":[2,4,6,8,10,12,14,16,18,20,22,24,26,28,30,-1,-1,-1,-1,-1,-1,-1,-1,-1,-1,-1,-1,-1,-1,-1,-1],"split_conditions":[1.1452127E-2,5.195741E-3,1E0,5.2495394E-3,2.2389677E-3,2.030587E-2,1.42030185E-2,5.1272656E-3,1.6445994E-2,6.0707713E-3,7.637173E-3,1.42030185E-2,2.6088495E-2,2E0,-2.7215373E-2,-8.772704E-3,2.7753294E-2,1.5513894E-2,-1.1226347E-2,-1.2084257E-2,9.401001E-4,-4.8083602E-3,-1.3400147E-2,2.3318125E-2,-1.569587E-3,5.7844836E-2,1.6306533E-2,-1.1283448E-3,-2.370005E-2,3.5089817E-2,3.8135133E-3],"split_indices":[2,2,5,3,0,2,2,2,3,2,2,2,2,5,3,0,0,0,0,0,0,0,0,0,0,0,0,0,0,0,0],"split_type":[0,0,0,0,0,0,0,0,0,0,0,0,0,0,0,0,0,0,0,0,0,0,0,0,0,0,0,0,0,0,0],"sum_hessian":[1.3198032E3,9.5968756E2,3.601156E2,2.1525006E2,7.444375E2,1.9476779E2,1.6534781E2,1.2959692E2,8.5653145E1,3.295784E2,4.1485913E2,1.4337592E2,5.1391884E1,8.528074E1,8.006707E1,1.2103162E2,8.565314E0,7.1501755E1,1.4151388E1,5.7350365E1,2.7222803E2,2.1487767E2,1.9998146E2,6.591568E1,7.7460236E1,1.6385818E1,3.5006065E1,6.703289E1,1.8247843E1,1.2661769E1,6.74053E1],"tree_param":{"num_deleted":"0","num_feature":"6","num_nodes":"31","size_leaf_vector":"1"}},{"base_weights":[-7.936584E-3,-2.4873978E-1,7.7864885E-2,-3.7567207E-1,-1.4688966E-1,-9.504717E-2,1.23772085E-1,-2.0003676E-1,-4.5316932E-1,5.020441E-1,-1.6816515E-1,-3.0091405E-2,-5.290515E-1,3.0411226E-1,7.6190844E-2,-1.271263E-2,1.9647941E-2,-2.6404975E-2,-1.7428232E-2,5.4148775E-2,-1.9256948E-2,-1.3644404E-2,2.1794465E-4,-6.906503E-3,7.7493223E-3,-2.8629009E-2,-9.722975E-3,4.072737E-2,5.2308785E-3,-5.5370964E-3,7.545522E-3],"categories":[],"categories_nodes":[],"categories_segments":[],"categories_sizes":[],"default_left":[0,0,0,0,0,0,0,0,0,0,0,0,0,0,0,0,0,0,0,0,0,0,0,0,0,0,0,0,0,0,0],"id":1,"left_children":[1,3,5,7,9,11,13,15,17,19,21,23,25,27,29,-1,-1,-1,-1,-1,-1,-1,-1,-1,-1,-1,-1,-1,-1,-1,-1],"loss_changes":[2.1229208E1,3.4343758E0,6.02576E0,1.5361977E0,2.1746945E0,4.4809146E0,5.1177406E0,1.3338937E0,4.5973969E-1,3.0234342E0,2.6632442E0,2.8169322E0,1.902175E-1,1.2616782E1,6.656584E0,0E0,0E0,0E0,0E0,0E0,0E0,0E0,0E0,0E0,0E0,0E0,0E0,0E0,0E0,0E0,0E0],"parents":[2147483647,0,0,1,1,2,2,3,3,4,4,5,5,6,6,7,7,8,8,9,9,10,10,11,11,12,12,13,13,14,14],"right_children":[2,4,6,8,10,12,14,16,18,20,22,24,26,28,30,-1,-1,-1,-1,-1,-1,-1,-1,-1,-1,-1,-1,-1,-1,-1,-1],"split_conditions":[-8.156787E-3,-1.2510295E-2,-3.3608424E-3,-7.112849E-2,-1.1982893E-2,4.1857496E-2,-1.5551052E-2,-7.5042024E-2,-2.138586E-2,-3.6388393E-2,-2.34463E-2,7.5274734E-3,8.035667E-2,2.2794822E-2,-2.2058424E-3,-1.271263E-2,1.9647941E-2,-2.6404975E-2,-1.7428232E-2,5.4148775E-2,-1.9256948E-2,-1.3644404E-2,2.1794465E-4,-6.906503E-3,7.7493223E-3,-2.8629009E-2,-9.722975E-3,4.072737E-2,5.2308785E-3,-5.5370964E-3,7.545522E-3],"split_indices":[1,3,0,1,3,1,4,1,3,1,1,3,1,1,3,0,0,0,0,0,0,0,0,0,0,0,0,0,0,0,0],"split_type":[0,0,0,0,0,0,0,0,0,0,0,0,0,0,0,0,0,0,0,0,0,0,0,0,0,0,0,0,0,0,0],"sum_hessian":[1.0255508E3,2.6892093E2,7.566299E2,1.1852226E2,1.5039867E2,1.5851265E2,5.9811725E2,3.7382328E1,8.113993E1,4.056997E0,1.4634166E2,1.3880724E2,1.9705412E1,1.23738396E2,4.743788E2,3.4774258E1,2.6080692E0,4.4916748E1,3.6223183E1,2.3182838E0,1.7387128E0,9.070285E1,5.563881E1,8.7805E1,5.1002243E1,1.6807558E1,2.8978548E0,3.39049E1,8.9833496E1,1.3532982E2,3.39049E2],"tree_param":{"num_deleted":"0","num_feature":"6","num_nodes":"31","size_leaf_vector":"1"}},{"base_weights":[2.493508E-3,1.2534988E-2,-8.009828E-1,-9.007815E-2,9.825557E-2,-9.8756635E-1,-5.4321575E-1,-5.792002E-1,-6.126484E-2,-5.3401303E-1,1.0784617E-1,-1.4816708E-2,-5.303627E-2,3.917528E-1,-4.5966882E-2,-3.4833234E-2,2.4316026E-2,2.314954E-3,-8.038155E-3,3.2312717E-2,-4.4934813E-2,7.978472E-3,1.0763264E-3,5.4703536E-3,2.5757415E-2],"categories":[],"categories_nodes":[],"categories_segments":[],"categories_sizes":[],"default_left":[0,0,0,0,0,0,0,0,0,0,0,0,0,0,0,0,0,0,0,0,0,0,0,0,0],"id":2,"left_children":[1,3,5,7,9,11,13,15,17,19,21,-1,-1,23,-1,-1,-1,-1,-1,-1,-1,-1,-1,-1,-1],"loss_changes":[1.4056384E1,1.5142202E1,4.9781132E-1,1.100794E1,5.7446976E0,2.547016E-1,4.317188E0,5.780061E0,7.9392653E0,6.6848946E0,4.12506E0,0E0,0E0,8.0534875E-2,0E0,0E0,0E0,0E0,0E0,0E0,0E0,0E0,0E0,0E0,0E0],"parents":[2147483647,0,0,1,1,2,2,3,3,4,4,5,5,6,6,7,7,8,8,9,9,10,10,13,13],"right_children":[2,4,6,8,10,12,14,16,18,20,22,-1,-1,24,-1,-1,-1,-1,-1,-1,-1,-1,-1,-1,-1],"split_conditions":[5.2943714E-2,7.637173E-3,1.7754382E-2,-2.8263958E-2,-5.4528102E-2,1.2466679E-2,4.6326507E-2,7.004597E-3,2.4647217E-3,8.361221E-3,8.520604E-3,-1.4816708E-2,-5.303627E-2,-7.112849E-2,-4.5966882E-2,-3.4833234E-2,2.4316026E-2,2.314954E-3,-8.038155E-3,3.2312717E-2,-4.4934813E-2,7.978472E-3,1.0763264E-3,5.4703536E-3,2.5757415E-2],"split_indices":[4,2,2,4,4,2,2,2,3,2,4,0,0,1,0,0,0,0,0,0,0,0,0,0,0],"split_type":[0,0,0,0,0,0,0,0,0,0,0,0,0,0,0,0,0,0,0,0,0,0,0,0,0],"sum_hessian":[1.7399747E3,1.71947E3,2.0504751E1,7.82598E2,9.368719E2,1.0252376E1,1.0252376E1,4.247413E1,7.401239E2,1.3181626E1,9.2369025E2,1.4646251E0,8.787751E0,2.9292502E0,7.323126E0,3.8568462E1,3.905667E0,3.559039E2,3.8422E2,2.9292502E0,1.0252376E1,5.770623E2,3.4662796E2,1.4646251E0,1.4646251E0],"tree_param":{"num_deleted":"0","num_feature":"6","num_nodes":"25","size_leaf_vector":"1"}}]},"name":"gbtree"},"learner_model_param":{"base_score":"[-1.6821337E-1,-5.09961E-1,6.7817444E-1]","boost_from_average":"1","num_class":"3","num_feature":"6","num_target":"1"},"objective":{"name":"multi:softprob","softmax_multiclass_param":{"num_class":"3"}}},"version":[3,2,0]}