{"learner":{"attributes":{"scikit_learn":"{\"_estimator_type\": \"classifier\"}"},"feature_names":["log_return_5d","log_return_20d","volatility_20d","credit_spread","dollar_momentum","regime_label"],"feature_types":["float","float","float","float","float","float"],"gradient_booster":{"model":{"cats":{"enc":[],"feature_segments":[],"sorted_idx":[]},"gbtree_model_param":{"num_parallel_tree":"1","num_trees":"3"},"iteration_indptr":[0,3],"tree_info":[0,1,2],"trees":[{"base_weights":[-4.3049585E-3,1.971359E-2,-2.4172525E-1,-2.2507878E-2,1.8146604E-1,-2.6679948E-1,5.5269565E-2,-1.0600291E-1,2.7292889E-2,3.1529403E-1,-5.6020703E-2,-3.9730644E-1,-7.979885E-2,-3.6949308E-3,-2.3795623E-2,-1.0125362E-2,3.3764844E-3,2.463633E-2,9.448204E-3,2.332973E-2,-4.6398616E-3,-2.0020695E-3,-2.4884522E-2,2.489371E-2,-1.0702684E-2],"categories":[],"categories_nodes":[],"categories_segments":[],"categories_sizes":[],"default_left":[0,0,0,0,0,0,0,0,0,0,0,0,0,0,0,0,0,0,0,0,0,0,0,0,0],"id":0,"left_children":[1,3,5,7,9,11,-1,13,15,17,19,21,23,-1,-1,-1,-1,-1,-1,-1,-1,-1,-1,-1,-1],"loss_changes":[8.202501E0,8.926219E0,4.75853E0,4.3144116E0,8.615848E0,3.1540308E0,0E0,4.5678353E0,6.02656E0,3.7887173E0,1.933655E0,2.7283134E0,4.3648763E0,0E0,0E0,0E0,0E0,0E0,0E0,0E0,0E0,0E0,0E0,0E0,0E0],"parents":[2147483647,0,0,1,1,2,2,3,3,4,4,5,5,7,7,8,8,9,9,10,10,11,11,12,12],"right_children":[2,4,6,8,10,12,-1,14,16,18,20,22,24,-1,-1,-1,-1,-1,-1,-1,-1,-1,-1,-1,-1],"split_conditions":[2.4622535E-2,1.1393581E-2,2.5920687E-2,7.258544E-3,8.685075E-3,1.0206589E-2,5.5269565E-2,2.297828E-2,-2.4316475E-2,2E0,1.19587835E-2,6.800209E-3,1.09143555E-2,-3.6949308E-3,-2.3795623E-2,-1.0125362E-2,3.3764844E-3,2.463633E-2,9.448204E-3,2.332973E-2,-4.6398616E-3,-2.0020695E-3,-2.4884522E-2,2.489371E-2,-1.0702684E-2],"split_indices":[3,3,2,2,2,2,0,0,0,5,3,2,2,0,0,0,0,0,0,0,0,0,0,0,0],"split_type":[0,0,0,0,0,0,0,0,0,0,0,0,0,0,0,0,0,0,0,0,0,0,0,0,0],"sum_hessian":[1.4365713E3,1.3054253E3,1.3114597E2,1.0358922E3,2.695331E2,1.295368E2,1.6091529E0,3.86599E2,6.492932E2,1.7217937E2,9.735375E1,7.563019E1,5.3906624E1,3.5682965E2,2.976933E1,9.614689E1,5.531463E2,7.040044E1,1.0177892E2,5.6320353E0,9.172172E1,1.6896105E1,5.873408E1,9.654918E0,4.4251705E1],"tree_param":{"num_deleted":"0","num_feature":"6","num_nodes":"25","size_leaf_vector":"1"}},{"base_weights":[2.7354544E-3,-1.01158425E-1,2.3044589E-1,-2.2283426E-1,-2.4307204E-2,1.1001364E-1,3.7873602E-1,-2.6761335E-1,7.5953744E-2,5.623002E-1,-4.279326E-2,8.0479103E-1,9.202605E-2,5.9222114E-1,1.8687955E-1,-1.9383332E-2,-9.690759E-3,1.7133314E-2,-2.1299012E-2,4.182642E-2,-1.2218076E-2,3.0783186E-2,-2.9692973E-3,-1.6907228E-2,6.5420255E-2,2.8341E-3,2.453012E-2,3.475783E-2,1.0271363E-3,2.4392696E-3,4.2291798E-2],"categories":[],"categories_nodes":[],"categories_segments":[],"categories_sizes":[],"default_left":[0,0,0,0,0,0,0,0,0,0,0,0,0,0,0,0,0,0,0,0,0,0,0,0,0,0,0,0,0,0,0],"id":1,"left_children":[1,3,5,7,9,11,13,15,17,19,21,23,25,27,29,-1,-1,-1,-1,-1,-1,-1,-1,-1,-1,-1,-1,-1,-1,-1,-1],"loss_changes":[2.5763247E1,6.9874644E0,6.051567E0,3.8918924E0,5.0064754E0,2.296542E0,6.135462E0,2.1563873E0,5.2992077E0,3.3251424E0,4.91322E0,3.1235256E0,2.592854E0,4.2061462E0,7.4004846E0,0E0,0E0,0E0,0E0,0E0,0E0,0E0,0E0,0E0,0E0,0E0,0E0,0E0,0E0,0E0,0E0],"parents":[2147483647,0,0,1,1,2,2,3,3,4,4,5,5,6,6,7,7,8,8,9,9,10,10,11,11,12,12,13,13,14,14],"right_children":[2,4,6,8,10,12,14,16,18,20,22,24,26,28,30,-1,-1,-1,-1,-1,-1,-1,-1,-1,-1,-1,-1,-1,-1,-1,-1],"split_conditions":[2.8448362E-2,-1.247376E-2,1.3243145E-2,1.6952982E-2,-3.330722E-2,-3.0431572E-2,4.6897862E-2,-1.828906E-2,2.7297802E-2,1.1459995E-2,-3.0270174E-2,-4.86391E-2,2.5996597E-2,1.740552E-2,3.693322E-2,-1.9383332E-2,-9.690759E-3,1.7133314E-2,-2.1299012E-2,4.182642E-2,-1.2218076E-2,3.0783186E-2,-2.9692973E-3,-1.6907228E-2,6.5420255E-2,2.8341E-3,2.453012E-2,3.475783E-2,1.0271363E-3,2.4392696E-3,4.2291798E-2],"split_indices":[1,1,0,3,4,3,1,0,3,0,0,3,4,4,0,0,0,0,0,0,0,0,0,0,0,0,0,0,0,0,0],"split_type":[0,0,0,0,0,0,0,0,0,0,0,0,0,0,0,0,0,0,0,0,0,0,0,0,0,0,0,0,0,0,0],"sum_hessian":[1.087014E3,7.4682684E2,3.4018723E2,2.883666E2,4.584602E2,1.8868808E2,1.5149916E2,2.5087285E2,3.7493755E1,1.3107573E1,4.4535263E2,3.6579273E0,1.8503015E2,7.0719925E1,8.077923E1,9.38868E1,1.5698604E2,2.469101E1,1.2802746E1,9.754473E0,3.3531E0,1.00593E1,4.3529333E2,1.2193091E0,2.4386182E0,1.710081E2,1.4022055E1,5.9746147E1,1.0973782E1,6.767165E1,1.3107573E1],"tree_param":{"num_deleted":"0","num_feature":"6","num_nodes":"31","size_leaf_vector":"1"}},{"base_weights":[1.3496747E-3,9.509917E-3,-6.575188E-1,4.4050696E-1,-5.1641655E-3,-7.2520185E-1,8.016178E-3,6.363004E-1,-2.9368243E-1,-4.7941428E-2,8.844755E-2,-4.7990566E-1,-4.791879E-2,3.6913525E-2,1.4986793E-2,-3.430855E-2,1.393339E-2,-1.6117081E-3,-2.3132859E-2,6.3042096E-3,-1.3530748E-2,-3.971703E-2,1.8175822E-3],"categories":[],"categories_nodes":[],"categories_segments":[],"categories_sizes":[],"default_left":[0,0,0,0,0,0,0,0,0,0,0,0,0,0,0,0,0,0,0,0,0,0,0],"id":2,"left_children":[1,3,5,7,9,11,-1,13,15,17,19,21,-1,-1,-1,-1,-1,-1,-1,-1,-1,-1,-1],"loss_changes":[9.627403E0,1.1187552E1,1.3288622E0,8.559281E0,6.8571563E0,7.076187E-1,0E0,1.3675957E0,3.0995007E0,7.640595E0,7.292357E0,1.968849E0,0E0,0E0,0E0,0E0,0E0,0E0,0E0,0E0,0E0,0E0,0E0],"parents":[2147483647,0,0,1,1,2,2,3,3,4,4,5,5,7,7,8,8,9,9,10,10,11,11],"right_children":[2,4,6,8,10,12,-1,14,16,18,20,22,-1,-1,-1,-1,-1,-1,-1,-1,-1,-1,-1],"split_conditions":[5.294399E-2,-3.938405E-2,2.6769686E-2,1.4293489E-2,9.794843E-3,6.139391E-2,8.016178E-3,2.5920687E-2,1.372924E-2,6.820073E-2,1.7359123E-2,1.2736241E-2,-4.791879E-2,3.6913525E-2,1.4986793E-2,-3.430855E-2,1.393339E-2,-1.6117081E-3,-2.3132859E-2,6.3042096E-3,-1.3530748E-2,-3.971703E-2,1.8175822E-3],"split_indices":[4,3,3,1,2,4,0,2,2,1,2,2,0,0,0,0,0,0,0,0,0,0,0],"split_type":[0,0,0,0,0,0,0,0,0,0,0,0,0,0,0,0,0,0,0,0,0,0,0],"sum_hessian":[1.7884731E3,1.7675669E3,2.090617E1,5.7243084E1,1.7103239E3,1.9412872E1,1.4932978E0,4.5296703E1,1.19463825E1,1.1742299E3,5.3609393E2,1.0950851E1,8.462021E0,3.3848083E1,1.1448617E1,6.9687233E0,4.9776597E0,1.1324176E3,4.181234E1,4.8581958E2,5.027436E1,6.4709573E0,4.4798937E0],"tree_param":{"num_deleted":"0","num_feature":"6","num_nodes":"23","size_leaf_vector":"1"}}]},"name":"gbtree"},"learner_model_param":{"base_score":"[-8.3835244E-2,-4.8055112E-1,5.6438637E-1]","boost_from_average":"1","num_class":"3","num_feature":"6","num_target":"1"},"objective":{"name":"multi:softprob","softmax_multiclass_param":{"num_class":"3"}}},"version":[3,2,0]}