{"learner":{"attributes":{"scikit_learn":"{\"_estimator_type\": \"classifier\"}"},"feature_names":["log_return_5d","log_return_20d","volatility_20d","credit_spread","dollar_momentum","regime_label"],"feature_types":["float","float","float","float","float","float"],"gradient_booster":{"model":{"cats":{"enc":[],"feature_segments":[],"sorted_idx":[]},"gbtree_model_param":{"num_parallel_tree":"1","num_trees":"18"},"iteration_indptr":[0,3,6,9,12,15,18],"tree_info":[0,1,2,0,1,2,0,1,2,0,1,2,0,1,2,0,1,2],"trees":[{"base_weights":[-1.5303677E-2,-8.800159E-2,2.1914919E-1,-2.9497576E-1,-6.242542E-2,2.3550828E-1,-2.9440442E-2,5.529895E-1,-3.2003063E-1,-2.4601837E-1,-2.6529292E-2,2.1145941E-1,7.92145E-1,4.134521E-3,3.687216E-2,-7.2051636E-3,-2.0339863E-2,-2.4197398E-2,-5.451084E-3,4.483783E-3,-3.366258E-3,1.193631E-2,-2.3643302E-2,8.988681E-3,6.0407557E-2],"categories":[],"categories_nodes":[],"categories_segments":[],"categories_sizes":[],"default_left":[0,0,0,0,0,0,0,0,0,0,0,0,0,0,0,0,0,0,0,0,0,0,0,0,0],"id":0,"left_children":[1,3,5,7,9,11,-1,13,15,17,19,21,23,-1,-1,-1,-1,-1,-1,-1,-1,-1,-1,-1,-1],"loss_changes":[2.4193441E1,5.7163496E0,4.579483E0,2.7026224E0,6.3561177E0,4.2504005E0,0E0,2.6678014E-1,1.713603E0,5.08998E0,3.8397565E0,6.041399E0,3.1719532E0,0E0,0E0,0E0,0E0,0E0,0E0,0E0,0E0,0E0,0E0,0E0,0E0],"parents":[2147483647,0,0,1,1,2,2,3,3,4,4,5,5,7,7,8,8,9,9,10,10,11,11,12,12],"right_children":[2,4,6,8,10,12,-1,14,16,18,20,22,24,-1,-1,-1,-1,-1,-1,-1,-1,-1,-1,-1,-1],"split_conditions":[1.5500224E-2,5.836727E-3,5.847621E-2,-1.7106194E-2,1E0,4.3648694E-2,-2.9440442E-2,-8.053501E-3,4.5961607E-3,1.0555542E-2,7.623268E-3,3.8194112E-2,-4.8922483E-2,4.134521E-3,3.687216E-2,-7.2051636E-3,-2.0339863E-2,-2.4197398E-2,-5.451084E-3,4.483783E-3,-3.366258E-3,1.193631E-2,-2.3643302E-2,8.988681E-3,6.0407557E-2],"split_indices":[2,2,2,3,5,2,0,0,2,2,2,2,0,0,0,0,0,0,0,0,0,0,0,0,0],"split_type":[0,0,0,0,0,0,0,0,0,0,0,0,0,0,0,0,0,0,0,0,0,0,0,0,0],"sum_hessian":[1.4173187E3,1.0823378E3,3.3498096E2,1.1787837E2,9.644594E2,3.290275E2,5.953453E0,2.778278E0,1.1510009E2,1.5677426E2,8.076851E2,3.167237E2,1.23038025E1,1.1906906E0,1.5875875E0,3.8895893E1,7.62042E1,5.6359356E1,1.0041491E2,2.0956155E2,5.981236E2,3.0521368E2,1.1510009E1,5.556556E0,6.7472467E0],"tree_param":{"num_deleted":"0","num_feature":"6","num_nodes":"25","size_leaf_vector":"1"}},{"base_weights":[1.2875918E-2,-2.3784877E-1,8.320102E-2,-2.6802793E-1,1.5772521E-1,1.3290009E-1,-1.7445795E-1,-5.071257E-1,-2.353797E-1,5.1546853E-2,-1.1118846E-1,-2.2377385E-2,2.3092636E-1,-2.9491144E-1,1.06139325E-1,-2.4937908E-3,-2.7627334E-2,-7.224388E-3,-1.679721E-2,3.1999664E-3,-2.2231294E-2,-6.091707E-3,3.0997617E-3,1.5953723E-3,1.4747168E-2,-1.6464112E-2,5.119988E-2,-7.690771E-3,6.8711214E-2],"categories":[],"categories_nodes":[],"categories_segments":[],"categories_sizes":[],"default_left":[0,0,0,0,0,0,0,0,0,0,0,0,0,0,0,0,0,0,0,0,0,0,0,0,0,0,0,0,0],"id":1,"left_children":[1,3,5,7,9,11,13,15,17,-1,19,21,23,25,27,-1,-1,-1,-1,-1,-1,-1,-1,-1,-1,-1,-1,-1,-1],"loss_changes":[1.5492947E1,2.3401651E0,8.808534E0,1.2795706E0,3.4663353E0,8.76802E0,3.795404E0,4.0161896E-1,1.4097891E0,0E0,7.1864974E-1,1.8847277E0,4.4879684E0,3.8813953E0,1.147995E1,0E0,0E0,0E0,0E0,0E0,0E0,0E0,0E0,0E0,0E0,0E0,0E0,0E0,0E0],"parents":[2147483647,0,0,1,1,2,2,3,3,4,4,5,5,6,6,7,7,8,8,10,10,11,11,12,12,13,13,14,14],"right_children":[2,4,6,8,10,12,14,16,18,-1,20,22,24,26,28,-1,-1,-1,-1,-1,-1,-1,-1,-1,-1,-1,-1,-1,-1],"split_conditions":[-2.1971336E-2,4.3693107E-2,6.612772E-2,-5.938451E-2,4.5663495E-2,-7.573334E-5,6.1919335E-3,-2.1467659E-1,7.905245E-3,5.1546853E-2,2.8630713E-4,-2.348021E-3,8.406149E-3,7.303751E-2,2.301915E-2,-2.4937908E-3,-2.7627334E-2,-7.224388E-3,-1.679721E-2,3.1999664E-3,-2.2231294E-2,-6.091707E-3,3.0997617E-3,1.5953723E-3,1.4747168E-2,-1.6464112E-2,5.119988E-2,-7.690771E-3,6.8711214E-2],"split_indices":[1,4,1,0,4,3,4,1,4,0,0,4,1,0,3,0,0,0,0,0,0,0,0,0,0,0,0,0,0],"split_type":[0,0,0,0,0,0,0,0,0,0,0,0,0,0,0,0,0,0,0,0,0,0,0,0,0,0,0,0,0],"sum_hessian":[8.765492E2,1.9148398E2,6.8506525E2,1.7821037E2,1.32736E1,5.746977E2,1.1036752E2,1.9664593E1,1.5854578E2,2.458074E0,1.0815526E1,2.227015E2,3.5199622E2,7.7183525E1,3.3184002E1,1.9664593E0,1.7698133E1,8.455775E1,7.398803E1,7.6200294E0,3.1954963E0,1.0201008E2,1.2069144E2,8.603259E1,2.6596362E2,7.595449E1,1.229037E0,2.8267853E1,4.916148E0],"tree_param":{"num_deleted":"0","num_feature":"6","num_nodes":"29","size_leaf_vector":"1"}},{"base_weights":[6.4586774E-3,7.549304E-2,-1.13061994E-1,-1.3509116E-1,1.0261708E-1,-3.901602E-1,-5.3074826E-2,-5.9529805E-1,3.993097E-2,1.9406544E-1,2.732096E-3,-1.9214362E-1,-6.468546E-1,-2.4901303E-2,-7.5054336E-1,-9.94254E-3,-3.864139E-2,-9.896052E-3,1.6138434E-2,7.302874E-3,1.8848147E-2,2.7147314E-2,-1.5830832E-3,-4.3927655E-2,-5.525958E-3,-2.5025917E-2,-4.870069E-2,4.784317E-3,-7.937787E-3,-4.1066345E-2,5.0716545E-3],"categories":[],"categories_nodes":[],"categories_segments":[],"categories_sizes":[],"default_left":[0,0,0,0,0,0,0,0,0,0,0,0,0,0,0,0,0,0,0,0,0,0,0,0,0,0,0,0,0,0,0],"id":2,"left_children":[1,3,5,7,9,11,13,15,17,19,21,23,25,27,29,-1,-1,-1,-1,-1,-1,-1,-1,-1,-1,-1,-1,-1,-1,-1,-1],"loss_changes":[1.4425819E1,6.3437395E0,1.0619892E1,1.0243785E1,8.97219E0,5.6581306E0,1.0344366E1,2.3112545E0,6.3109684E0,4.4475746E0,8.759297E0,3.5807323E0,1.8640099E0,8.213892E0,1.3160505E0,0E0,0E0,0E0,0E0,0E0,0E0,0E0,0E0,0E0,0E0,0E0,0E0,0E0,0E0,0E0,0E0],"parents":[2147483647,0,0,1,1,2,2,3,3,4,4,5,5,6,6,7,7,8,8,9,9,10,10,11,11,12,12,13,13,14,14],"right_children":[2,4,6,8,10,12,14,16,18,20,22,24,26,28,30,-1,-1,-1,-1,-1,-1,-1,-1,-1,-1,-1,-1,-1,-1,-1,-1],"split_conditions":[8.279791E-3,-2.8827846E-2,7.623268E-3,-4.691453E-3,2.467815E-3,1.8311704E-2,5.2943803E-2,-2.5230968E-2,1.3785617E-2,4.4204842E-2,4.972346E-3,-1.1809676E-2,3.0156374E-2,3.9260495E-3,2.6769863E-2,-9.94254E-3,-3.864139E-2,-9.896052E-3,1.6138434E-2,7.302874E-3,1.8848147E-2,2.7147314E-2,-1.5830832E-3,-4.3927655E-2,-5.525958E-3,-2.5025917E-2,-4.870069E-2,4.784317E-3,-7.937787E-3,-4.1066345E-2,5.0716545E-3],"split_indices":[4,4,2,3,3,4,4,1,2,1,2,3,4,1,3,0,0,0,0,0,0,0,0,0,0,0,0,0,0,0,0],"split_type":[0,0,0,0,0,0,0,0,0,0,0,0,0,0,0,0,0,0,0,0,0,0,0,0,0,0,0,0,0,0,0],"sum_hessian":[1.7463309E3,1.1071923E3,6.391386E2,1.2588358E2,9.8130865E2,1.1276058E2,5.2637805E2,3.402259E1,9.186099E1,5.1179694E2,4.6951172E2,6.464292E1,4.811766E1,5.0693658E2,1.9441479E1,1.1178851E1,2.2843739E1,5.006181E1,4.179918E1,4.0681296E2,1.04983986E2,2.7218071E1,4.4229367E2,5.8324437E0,5.8810474E1,3.4994663E1,1.3122998E1,2.6683432E2,2.4010226E2,1.7983368E1,1.4581109E0],"tree_param":{"num_deleted":"0","num_feature":"6","num_nodes":"31","size_leaf_vector":"1"}},{"base_weights":[-2.7865965E-3,2.63028E-1,-2.0850413E-2,-1.06696576E-1,6.8200964E-1,6.891903E-2,-4.985044E-2,8.9449847E-1,-2.2651431E-1,5.2107775E-1,5.73426E-2,1.1694176E-1,-1.2571451E-1,-1.2583353E-1,1.1774348E-2,6.4766884E-2,-2.14026E-3,-1.9166622E-2,7.101636E-3,2.9854441E-2,-2.2906115E-2,-5.927135E-3,8.477078E-3,-1.1784418E-2,6.3186125E-3,2.048066E-3,-8.658031E-3,4.2993887E-3,-6.0777417E-3],"categories":[],"categories_nodes":[],"categories_segments":[],"categories_sizes":[],"default_left":[0,0,0,0,0,0,0,0,0,0,0,0,0,0,0,0,0,0,0,0,0,0,0,0,0,0,0,0,0],"id":3,"left_children":[1,3,5,7,9,11,13,15,17,19,-1,21,23,25,27,-1,-1,-1,-1,-1,-1,-1,-1,-1,-1,-1,-1,-1,-1],"loss_changes":[6.8686147E0,1.4173285E1,3.4900823E0,6.10706E0,2.6045914E0,3.0752277E0,4.7441854E0,2.1078796E0,2.6411636E0,2.7766056E0,0E0,3.279665E0,1.8396415E0,3.5883865E0,5.5534463E0,0E0,0E0,0E0,0E0,0E0,0E0,0E0,0E0,0E0,0E0,0E0,0E0,0E0,0E0],"parents":[2147483647,0,0,1,1,2,2,3,3,4,4,5,5,6,6,7,7,8,8,9,9,11,11,12,12,13,13,14,14],"right_children":[2,4,6,8,10,12,14,16,18,20,-1,22,24,26,28,-1,-1,-1,-1,-1,-1,-1,-1,-1,-1,-1,-1,-1,-1],"split_conditions":[-7.352692E-2,-1.7106194E-2,-8.00229E-3,-1.3225272E-1,1.6706586E-2,2.2708472E-2,2.1098115E-2,-1.6682537E-1,-2.8332178E-2,1.4140918E-2,5.73426E-2,-4.3444373E-2,4.2232703E-2,-2.8755728E-2,5.7113755E-2,6.4766884E-2,-2.14026E-3,-1.9166622E-2,7.101636E-3,2.9854441E-2,-2.2906115E-2,-5.927135E-3,8.477078E-3,-1.1784418E-2,6.3186125E-3,2.048066E-3,-8.658031E-3,4.2993887E-3,-6.0777417E-3],"split_indices":[1,3,3,3,3,0,1,1,3,3,0,1,0,1,1,0,0,0,0,0,0,0,0,0,0,0,0,0,0],"split_type":[0,0,0,0,0,0,0,0,0,0,0,0,0,0,0,0,0,0,0,0,0,0,0,0,0,0,0,0,0],"sum_hessian":[1.4283348E3,9.002521E1,1.3383097E3,4.8219723E1,4.1805485E1,3.2643994E2,1.0118697E3,4.462837E0,4.3756886E1,3.2629787E1,9.175696E0,2.6215622E2,6.428371E1,4.526779E2,5.591918E2,2.858439E0,1.604398E0,3.0667593E1,1.3089293E1,3.0641453E1,1.9883354E0,4.7636833E1,2.145194E2,4.480319E1,1.9480516E1,1.0008451E2,3.5259338E2,3.594632E2,1.997286E2],"tree_param":{"num_deleted":"0","num_feature":"6","num_nodes":"29","size_leaf_vector":"1"}},{"base_weights":[5.6100953E-3,-2.2772735E-1,7.177177E-2,-2.8161457E-1,-4.371744E-2,1.2740807E-1,-1.9836539E-1,-2.1614416E-1,-3.8311598E-1,2.3554589E-1,-2.8084147E-1,-6.974653E-3,2.4571772E-1,-2.5738636E-1,1.1618004E-1,-1.2936457E-2,8.005214E-3,-2.1131512E-2,4.0793545E-3,-5.8689243E-3,4.0310163E-2,-1.7214414E-2,1.8612495E-2,4.2704478E-2,-7.472692E-4,2.5924267E-3,1.5723106E-2,-6.209241E-3,-1.5737614E-2,3.8176324E-2,-6.920083E-3],"categories":[],"categories_nodes":[],"categories_segments":[],"categories_sizes":[],"default_left":[0,0,0,0,0,0,0,0,0,0,0,0,0,0,0,0,0,0,0,0,0,0,0,0,0,0,0,0,0,0,0],"id":4,"left_children":[1,3,5,7,9,11,13,15,17,19,21,23,25,27,29,-1,-1,-1,-1,-1,-1,-1,-1,-1,-1,-1,-1,-1,-1,-1,-1],"loss_changes":[1.3703551E1,1.9321213E0,1.0418087E1,9.239111E-1,3.085925E0,9.127783E0,2.2295785E0,1.5537281E0,1.1014547E0,4.421537E0,1.1689582E0,1.8639519E0,4.0524063E0,7.2562695E-1,3.304337E0,0E0,0E0,0E0,0E0,0E0,0E0,0E0,0E0,0E0,0E0,0E0,0E0,0E0,0E0,0E0,0E0],"parents":[2147483647,0,0,1,1,2,2,3,3,4,4,5,5,6,6,7,7,8,8,9,9,10,10,11,11,12,12,13,13,14,14],"right_children":[2,4,6,8,10,12,14,16,18,20,22,24,26,28,30,-1,-1,-1,-1,-1,-1,-1,-1,-1,-1,-1,-1,-1,-1,-1,-1],"split_conditions":[-2.3119997E-2,1E0,6.453862E-2,-3.3570272E-3,-5.347788E-2,2.8428251E-3,3.9902434E-2,-7.550237E-3,-2.7597742E-2,-1.057368E-2,1.8878471E-2,-9.035043E-2,1.1104767E-2,2E0,4.4311177E-2,-1.2936457E-2,8.005214E-3,-2.1131512E-2,4.0793545E-3,-5.8689243E-3,4.0310163E-2,-1.7214414E-2,1.8612495E-2,4.2704478E-2,-7.472692E-4,2.5924267E-3,1.5723106E-2,-6.209241E-3,-1.5737614E-2,3.8176324E-2,-6.920083E-3],"split_indices":[1,5,1,3,1,3,0,3,1,0,3,3,1,5,0,0,0,0,0,0,0,0,0,0,0,0,0,0,0,0,0],"split_type":[0,0,0,0,0,0,0,0,0,0,0,0,0,0,0,0,0,0,0,0,0,0,0,0,0,0,0,0,0,0,0],"sum_hessian":[8.8559216E2,1.9509471E2,6.9049744E2,1.504926E2,4.460211E1,5.730109E2,1.1748653E2,9.3386154E1,5.7106438E1,2.0484255E1,2.4117855E1,2.6872223E2,3.042887E2,9.907746E1,1.8409065E1,8.417169E1,9.214468E0,5.2714592E1,4.391846E0,1.3147478E1,7.336778E0,2.2413275E1,1.704581E0,1.4910718E0,2.6723117E2,8.0112885E1,2.2417581E2,3.0777662E1,6.82998E1,4.6319284E0,1.3777138E1],"tree_param":{"num_deleted":"0","num_feature":"6","num_nodes":"31","size_leaf_vector":"1"}},{"base_weights":[6.9018076E-3,2.035066E-2,-4.4001502E-1,1.023957E-2,6.1125594E-1,-2.9323894E-1,-7.696197E-1,-1.0958391E-1,4.7169805E-2,4.7909567E-1,3.8732335E-2,3.535336E-2,-4.4945437E-1,-4.3507997E-2,5.1827086E-3,8.1263725E-3,-1.2455276E-2,5.4251724E-3,-5.172793E-3,3.1981338E-2,1.2255546E-3,-2.6724583E-2,1.5172943E-3],"categories":[],"categories_nodes":[],"categories_segments":[],"categories_sizes":[],"default_left":[0,0,0,0,0,0,0,0,0,0,0,0,0,0,0,0,0,0,0,0,0,0,0],"id":5,"left_children":[1,3,5,7,9,11,13,15,17,19,-1,-1,21,-1,-1,-1,-1,-1,-1,-1,-1,-1,-1],"loss_changes":[1.0541288E1,1.016316E1,2.252986E0,7.4148545E0,2.4683285E-1,6.109685E0,1.4221439E0,1.5029023E1,1.18425865E1,1.3301134E0,0E0,0E0,1.3491788E0,0E0,0E0,0E0,0E0,0E0,0E0,0E0,0E0,0E0,0E0],"parents":[2147483647,0,0,1,1,2,2,3,3,4,4,5,5,6,6,7,7,8,8,9,9,12,12],"right_children":[2,4,6,8,10,12,14,16,18,20,-1,-1,22,-1,-1,-1,-1,-1,-1,-1,-1,-1,-1],"split_conditions":[4.3693107E-2,3.8194112E-2,1.9935116E-2,7.623268E-3,5.0442215E-2,-4.497411E-2,5.847621E-2,5.836727E-3,1.5500224E-2,3.8834298E-3,3.8732335E-2,3.535336E-2,9.9187475E-3,-4.3507997E-2,5.1827086E-3,8.1263725E-3,-1.2455276E-2,5.4251724E-3,-5.172793E-3,3.1981338E-2,1.2255546E-3,-2.6724583E-2,1.5172943E-3],"split_indices":[4,2,2,2,2,3,2,2,2,4,0,0,3,0,0,0,0,0,0,0,0,0,0],"split_type":[0,0,0,0,0,0,0,0,0,0,0,0,0,0,0,0,0,0,0,0,0,0,0],"sum_hessian":[1.7513169E3,1.7010815E3,5.023536E1,1.6734639E3,2.7617622E1,3.606496E1,1.4170402E1,3.9379456E2,1.2796693E3,1.7441832E1,1.0175791E1,4.3951206E0,3.1669838E1,1.2710593E1,1.4598081E0,1.3341945E2,2.6037512E2,9.0957635E2,3.7009302E2,1.2589088E1,4.852743E0,2.6805061E1,4.864776E0],"tree_param":{"num_deleted":"0","num_feature":"6","num_nodes":"23","size_leaf_vector":"1"}},{"base_weights":[9.122199E-3,-7.1097694E-2,1.4382908E-1,-8.312956E-3,-1.8702522E-1,1.1400723E-1,6.268123E-1,3.6680716E-1,-2.5353279E-2,-2.610897E-1,2.3234228E-2,2.0545017E-2,2.140762E-1,2.8128895E-1,1.0387449E0,-1.7744068E-2,3.3445194E-2,-6.5736785E-3,1.8624269E-3,8.464175E-3,-1.5884753E-2,-3.6421206E-3,2.841327E-2,6.5942924E-3,-4.5648576E-3,1.2573274E-2,-1.8670838E-2,5.9267785E-2,2.8835097E-3,3.6003496E-2,6.446295E-2],"categories":[],"categories_nodes":[],"categories_segments":[],"categories_sizes":[],"default_left":[0,0,0,0,0,0,0,0,0,0,0,0,0,0,0,0,0,0,0,0,0,0,0,0,0,0,0,0,0,0,0],"id":6,"left_children":[1,3,5,7,9,11,13,15,17,19,21,23,25,27,29,-1,-1,-1,-1,-1,-1,-1,-1,-1,-1,-1,-1,-1,-1,-1,-1],"loss_changes":[1.5393177E1,6.4972477E0,7.5862017E0,3.7183018E0,4.89027E0,4.690258E0,4.076805E0,5.748388E0,3.6983466E0,5.706088E0,4.367707E0,3.2578554E0,5.4163656E0,3.5837393E0,1.5983391E-1,0E0,0E0,0E0,0E0,0E0,0E0,0E0,0E0,0E0,0E0,0E0,0E0,0E0,0E0,0E0,0E0],"parents":[2147483647,0,0,1,1,2,2,3,3,4,4,5,5,6,6,7,7,8,8,9,9,10,10,11,11,12,12,13,13,14,14],"right_children":[2,4,6,8,10,12,14,16,18,20,22,24,26,28,30,-1,-1,-1,-1,-1,-1,-1,-1,-1,-1,-1,-1,-1,-1,-1,-1],"split_conditions":[8.279791E-3,1.3951052E-2,4.7763042E-2,-3.8017772E-2,3.6535155E-2,1.0099172E-2,-5.462242E-3,1.1913132E-2,-1.066555E-2,-2.8827846E-2,9.9392176E-2,-2.9361855E-2,9.1131955E-2,-1.422434E-1,2.3228996E-2,-1.7744068E-2,3.3445194E-2,-6.5736785E-3,1.8624269E-3,8.464175E-3,-1.5884753E-2,-3.6421206E-3,2.841327E-2,6.5942924E-3,-4.5648576E-3,1.2573274E-2,-1.8670838E-2,5.9267785E-2,2.8835097E-3,3.6003496E-2,6.446295E-2],"split_indices":[4,0,4,4,0,1,0,1,4,4,1,1,1,1,0,0,0,0,0,0,0,0,0,0,0,0,0,0,0,0,0],"split_type":[0,0,0,0,0,0,0,0,0,0,0,0,0,0,0,0,0,0,0,0,0,0,0,0,0,0,0,0,0,0,0],"sum_hessian":[1.4225339E3,8.918792E2,5.306548E2,5.7924164E2,3.1263754E2,5.0095905E2,2.9695717E1,2.4277557E1,5.549641E2,2.3101875E2,8.1618774E1,2.596536E2,2.4130544E2,1.7064829E1,1.2630888E1,7.1122203E0,1.7165337E1,2.0550293E2,3.4946118E2,2.6621744E1,2.0439702E2,7.012388E1,1.1494898E1,1.3002863E2,1.2962497E2,2.2740489E2,1.390055E1,2.5310948E0,1.4533733E1,7.264369E0,5.366519E0],"tree_param":{"num_deleted":"0","num_feature":"6","num_nodes":"31","size_leaf_vector":"1"}},{"base_weights":[1.7188845E-2,2.5808856E-1,-1.5466914E-1,2.9838598E-1,-2.2210312E-1,-2.483968E-1,-4.334367E-2,3.1770626E-1,-3.4146973E-1,-3.3130923E-1,5.209307E-1,-3.6107266E-1,-1.8385507E-1,8.449794E-2,-2.3460455E-1,7.987224E-3,1.8940339E-2,-2.3307723E-3,-2.4978442E-2,3.4545004E-2,-2.0010777E-2,4.85038E-2,-1.5867641E-2,-2.7882993E-2,-1.4811053E-2,-1.0942763E-2,9.018051E-3,1.3803499E-3,1.7643163E-2,-1.6249256E-2,-2.6143098E-3],"categories":[],"categories_nodes":[],"categories_segments":[],"categories_sizes":[],"default_left":[0,0,0,0,0,0,0,0,0,0,0,0,0,0,0,0,0,0,0,0,0,0,0,0,0,0,0,0,0,0,0],"id":7,"left_children":[1,3,5,7,9,11,13,15,17,19,21,23,25,27,29,-1,-1,-1,-1,-1,-1,-1,-1,-1,-1,-1,-1,-1,-1,-1,-1],"loss_changes":[3.6998444E1,7.2659473E0,5.432168E0,4.35721E0,2.5565557E0,1.9916153E0,5.8794675E0,3.1643753E0,4.6876276E-1,2.1237862E0,1.8716748E0,1.1355505E0,2.3591003E0,2.1944816E0,1.5694222E0,0E0,0E0,0E0,0E0,0E0,0E0,0E0,0E0,0E0,0E0,0E0,0E0,0E0,0E0,0E0,0E0],"parents":[2147483647,0,0,1,1,2,2,3,3,4,4,5,5,6,6,7,7,8,8,9,9,10,10,11,11,12,12,13,13,14,14],"right_children":[2,4,6,8,10,12,14,16,18,20,22,24,26,28,30,-1,-1,-1,-1,-1,-1,-1,-1,-1,-1,-1,-1,-1,-1,-1,-1],"split_conditions":[9.886751E-3,6.820411E-2,4.341513E-3,3.1116994E-2,9.407111E-3,-1.7106194E-2,1.5500224E-2,8.948261E-3,7.95637E-3,2E0,9.55358E-3,-8.332604E-2,2.33352E-2,2.4623174E-2,2.4623174E-2,7.987224E-3,1.8940339E-2,-2.3307723E-3,-2.4978442E-2,3.4545004E-2,-2.0010777E-2,4.85038E-2,-1.5867641E-2,-2.7882993E-2,-1.4811053E-2,-1.0942763E-2,9.018051E-3,1.3803499E-3,1.7643163E-2,-1.6249256E-2,-2.6143098E-3],"split_indices":[2,1,3,3,2,3,2,1,2,5,2,1,2,3,3,0,0,0,0,0,0,0,0,0,0,0,0,0,0,0,0],"split_type":[0,0,0,0,0,0,0,0,0,0,0,0,0,0,0,0,0,0,0,0,0,0,0,0,0,0,0,0,0,0,0],"sum_hessian":[8.917064E2,3.710667E2,5.206397E2,3.426872E2,2.8379515E1,2.8199222E2,2.3864748E2,3.3313184E2,9.555353E0,2.5226068E1,3.1534452E0,1.0102685E2,1.809654E2,1.4337303E2,9.527445E1,9.392474E1,2.3920709E2,3.7871606E0,5.7681923E0,1.0230278E0,2.4203041E1,1.9509342E0,1.2025111E0,2.317538E1,7.785146E1,1.6546387E2,1.5501521E1,1.1920545E2,2.4167574E1,6.3174484E1,3.2099968E1],"tree_param":{"num_deleted":"0","num_feature":"6","num_nodes":"31","size_leaf_vector":"1"}},{"base_weights":[-4.1582878E-4,-1.3153851E-1,3.7579853E-2,5.9212215E-2,-2.8986812E-1,9.196194E-2,-1.0779919E-1,2.5712898E-1,-6.754289E-2,-3.6696213E-1,2.672157E-1,1.9618057E-1,-2.0856071E-2,-1.5252963E-1,2.7346945E-1,1.4396067E-2,-3.5486896E-2,-4.5378428E-2,-1.6069732E-3,-1.13278255E-2,-2.8444568E-2,2.3664175E-2,-1.716653E-2,2.5604755E-2,8.8448245E-3,-7.518386E-3,3.0660152E-3,-9.006168E-3,1.6271016E-2,-1.2238267E-2,2.7233778E-2],"categories":[],"categories_nodes":[],"categories_segments":[],"categories_sizes":[],"default_left":[0,0,0,0,0,0,0,0,0,0,0,0,0,0,0,0,0,0,0,0,0,0,0,0,0,0,0,0,0,0,0],"id":8,"left_children":[1,3,5,7,9,11,13,15,17,19,21,23,25,27,29,-1,-1,-1,-1,-1,-1,-1,-1,-1,-1,-1,-1,-1,-1,-1,-1],"loss_changes":[8.741547E0,1.1922653E1,1.0765242E1,4.5236254E0,9.356606E0,1.1651176E1,6.365608E0,2.2983875E0,3.2508287E0,5.2520733E0,3.5324535E0,3.0469475E0,5.0813E0,4.4439707E0,5.6559553E0,0E0,0E0,0E0,0E0,0E0,0E0,0E0,0E0,0E0,0E0,0E0,0E0,0E0,0E0,0E0,0E0],"parents":[2147483647,0,0,1,1,2,2,3,3,4,4,5,5,6,6,7,7,8,8,9,9,10,10,11,11,12,12,13,13,14,14],"right_children":[2,4,6,8,10,12,14,16,18,20,22,24,26,28,30,-1,-1,-1,-1,-1,-1,-1,-1,-1,-1,-1,-1,-1,-1,-1,-1],"split_conditions":[7.623268E-3,6.214836E-3,1.650897E-2,2.8266864E-2,6.612772E-2,2.0004006E-2,3.8194112E-2,1.9463375E-2,-1.2958777E-2,5.7718507E-3,2.301915E-2,-3.258017E-2,2E0,1.0735736E-1,-9.035043E-2,1.4396067E-2,-3.5486896E-2,-4.5378428E-2,-1.6069732E-3,-1.13278255E-2,-2.8444568E-2,2.3664175E-2,-1.716653E-2,2.5604755E-2,8.8448245E-3,-7.518386E-3,3.0660152E-3,-9.006168E-3,1.6271016E-2,-1.2238267E-2,2.7233778E-2],"split_indices":[2,2,2,1,1,1,2,3,3,3,3,3,5,1,3,0,0,0,0,0,0,0,0,0,0,0,0,0,0,0,0],"split_type":[0,0,0,0,0,0,0,0,0,0,0,0,0,0,0,0,0,0,0,0,0,0,0,0,0,0,0,0,0,0,0],"sum_hessian":[1.7526002E3,3.9320212E2,1.3593981E3,1.786255E2,2.145766E2,9.89589E2,3.6980914E2,6.93356E1,1.092899E2,1.8879132E2,2.5785276E1,5.140151E2,4.755739E2,3.3151566E2,3.8293488E1,6.787613E1,1.4594775E0,3.4235454E0,1.05866356E2,1.12611885E2,7.617944E1,1.94466E1,6.3386765E0,2.8101229E1,4.8591382E2,1.842936E2,2.912803E2,3.140099E2,1.750575E1,1.3188913E1,2.5104574E1],"tree_param":{"num_deleted":"0","num_feature":"6","num_nodes":"31","size_leaf_vector":"1"}},{"base_weights":[-9.731461E-3,-8.694205E-2,2.3025952E-1,-1.6166823E-1,-2.7576782E-2,2.4664135E-1,-2.909993E-2,-9.511671E-2,-3.844668E-1,-2.2030233E-1,1.20260995E-2,2.66175E-1,-4.2040923E-1,3.1829153E-3,-7.938036E-3,-2.155542E-2,1.1151087E-2,-1.221884E-2,4.9970847E-2,3.2216185E-3,-5.1516495E-3,2.4326704E-2,1.0941074E-2,4.348886E-3,-2.4872782E-2],"categories":[],"categories_nodes":[],"categories_segments":[],"categories_sizes":[],"default_left":[0,0,0,0,0,0,0,0,0,0,0,0,0,0,0,0,0,0,0,0,0,0,0,0,0],"id":9,"left_children":[1,3,5,7,9,11,-1,13,15,17,19,21,23,-1,-1,-1,-1,-1,-1,-1,-1,-1,-1,-1,-1],"loss_changes":[2.6445345E1,4.7852116E0,4.766178E0,7.048027E0,4.6042337E0,4.5581913E0,0E0,3.7412221E0,3.2006302E0,3.2635002E0,3.0280166E0,3.3593502E0,4.3794465E-1,0E0,0E0,0E0,0E0,0E0,0E0,0E0,0E0,0E0,0E0,0E0,0E0],"parents":[2147483647,0,0,1,1,2,2,3,3,4,4,5,5,7,7,8,8,9,9,10,10,11,11,12,12],"right_children":[2,4,6,8,10,12,-1,14,16,18,20,22,24,-1,-1,-1,-1,-1,-1,-1,-1,-1,-1,-1,-1],"split_conditions":[1.5500224E-2,1.8103851E-2,5.847621E-2,1.0791311E-2,6.0461317E-3,1.3353692E-1,-2.909993E-2,-1.0966615E-2,4.2232703E-2,3.2268055E-2,6.002441E-2,-8.332604E-2,2.8630713E-4,3.1829153E-3,-7.938036E-3,-2.155542E-2,1.1151087E-2,-1.221884E-2,4.9970847E-2,3.2216185E-3,-5.1516495E-3,2.4326704E-2,1.0941074E-2,4.348886E-3,-2.4872782E-2],"split_indices":[2,1,2,0,2,1,0,3,0,0,1,1,0,0,0,0,0,0,0,0,0,0,0,0,0],"split_type":[0,0,0,0,0,0,0,0,0,0,0,0,0,0,0,0,0,0,0,0,0,0,0,0,0],"sum_hessian":[1.4250953E3,1.0786929E3,3.4640247E2,4.767984E2,6.0189453E2,3.4023682E2,6.1656327E0,3.6823184E2,1.0856656E2,1.01821625E2,5.0007288E2,3.311408E2,9.0960245E0,1.05367485E2,2.6286438E2,1.01095055E2,7.4715066E0,1.00634964E2,1.1866598E0,3.4388342E2,1.5618947E2,5.693231E1,2.742085E2,1.182144E0,7.9138803E0],"tree_param":{"num_deleted":"0","num_feature":"6","num_nodes":"25","size_leaf_vector":"1"}},{"base_weights":[1.0977039E-2,2.4160478E-1,-1.580819E-1,4.129509E-1,1.590786E-1,-2.8142548E-1,-9.7570434E-2,1.5108004E-1,9.638413E-1,2.0595612E-1,-2.1212018E-1,-3.0869198E-1,4.4377502E-2,4.8140684E-1,-1.1127621E-1,4.1407896E-3,6.5119825E-2,1.02062635E-1,3.935023E-2,1.7019449E-3,1.49620045E-2,-1.5875183E-2,1.9961407E-2,7.880456E-4,-1.6783383E-2,2.9957676E-2,-5.1655704E-3,3.3576522E-2,-1.6035883E-2,-9.576027E-3,-2.7630858E-3],"categories":[],"categories_nodes":[],"categories_segments":[],"categories_sizes":[],"default_left":[0,0,0,0,0,0,0,0,0,0,0,0,0,0,0,0,0,0,0,0,0,0,0,0,0,0,0,0,0,0,0],"id":10,"left_children":[1,3,5,7,9,11,13,15,17,19,21,23,25,27,29,-1,-1,-1,-1,-1,-1,-1,-1,-1,-1,-1,-1,-1,-1,-1,-1],"loss_changes":[3.415386E1,5.173359E0,3.7453947E0,1.7138603E1,4.4232674E0,1.4869442E0,2.7567654E0,6.3677998E0,5.7129936E0,3.5817099E0,1.9766529E0,1.345788E0,1.1828972E0,1.445359E0,1.4888425E0,0E0,0E0,0E0,0E0,0E0,0E0,0E0,0E0,0E0,0E0,0E0,0E0,0E0,0E0,0E0,0E0],"parents":[2147483647,0,0,1,1,2,2,3,3,4,4,5,5,6,6,7,7,8,8,9,9,10,10,11,11,12,12,13,13,14,14],"right_children":[2,4,6,8,10,12,14,16,18,20,22,24,26,28,30,-1,-1,-1,-1,-1,-1,-1,-1,-1,-1,-1,-1,-1,-1,-1,-1],"split_conditions":[9.923571E-3,2E0,-2.3119997E-2,1.2834347E-2,6.820411E-2,4.3693107E-2,-1.97739E-2,3.4849603E-2,1.502298E-2,2.678638E-2,9.407111E-3,-2.2113932E-2,4.5663495E-2,2.1545481E-2,2.0591594E-2,4.1407896E-3,6.5119825E-2,1.02062635E-1,3.935023E-2,1.7019449E-3,1.49620045E-2,-1.5875183E-2,1.9961407E-2,7.880456E-4,-1.6783383E-2,2.9957676E-2,-5.1655704E-3,3.3576522E-2,-1.6035883E-2,-9.576027E-3,-2.7630858E-3],"split_indices":[2,5,1,1,1,4,1,4,1,1,2,4,4,4,1,0,0,0,0,0,0,0,0,0,0,0,0,0,0,0,0],"split_type":[0,0,0,0,0,0,0,0,0,0,0,0,0,0,0,0,0,0,0,0,0,0,0,0,0,0,0,0,0,0,0],"sum_hessian":[8.739922E2,3.6949857E2,5.0449362E2,1.18811226E2,2.5068733E2,1.648404E2,3.3965323E2,8.139405E1,3.741717E1,2.2297383E2,2.7713503E1,1.5215872E2,1.2681674E1,7.065344E0,3.325879E2,7.785007E1,3.5439823E0,3.7889748E0,3.3628197E1,7.8910675E1,1.4406316E2,2.4048672E1,3.6648312E0,1.171162E1,1.404471E2,2.0235574E0,1.0658116E1,5.8431754E0,1.2221686E0,1.3572873E2,1.9685916E2],"tree_param":{"num_deleted":"0","num_feature":"6","num_nodes":"31","size_leaf_vector":"1"}},{"base_weights":[5.4846785E-4,5.33859E-2,-9.043961E-2,1.4439455E-1,-5.7745185E-2,5.7159487E-2,-2.1193406E-1,-6.911618E-2,2.1184339E-1,-1.0585235E-1,1.5286022E-1,-1.2445827E-1,1.6057895E-1,-3.7379456E-1,-1.5319476E-1,-1.27717955E-2,8.534363E-3,4.9302434E-3,1.6251719E-2,2.5467356E-3,-1.1216438E-2,2.3761315E-2,1.2697777E-3,9.767038E-3,-1.927059E-2,2.200605E-3,1.418584E-2,2.8028345E-2,-1.9994762E-2,-8.32444E-3,2.5329143E-2],"categories":[],"categories_nodes":[],"categories_segments":[],"categories_sizes":[],"default_left":[0,0,0,0,0,0,0,0,0,0,0,0,0,0,0,0,0,0,0,0,0,0,0,0,0,0,0,0,0,0,0],"id":11,"left_children":[1,3,5,7,9,11,13,15,17,19,21,23,25,27,29,-1,-1,-1,-1,-1,-1,-1,-1,-1,-1,-1,-1,-1,-1,-1,-1],"loss_changes":[8.362614E0,1.1137952E1,1.147155E1,8.7311945E0,5.043053E0,5.453999E0,3.277278E0,6.5695424E0,5.866766E0,7.5250177E0,3.79571E0,8.882241E0,2.6397414E0,2.484725E0,2.3563356E0,0E0,0E0,0E0,0E0,0E0,0E0,0E0,0E0,0E0,0E0,0E0,0E0,0E0,0E0,0E0,0E0],"parents":[2147483647,0,0,1,1,2,2,3,3,4,4,5,5,6,6,7,7,8,8,9,9,10,10,11,11,12,12,13,13,14,14],"right_children":[2,4,6,8,10,12,14,16,18,20,22,24,26,28,30,-1,-1,-1,-1,-1,-1,-1,-1,-1,-1,-1,-1,-1,-1,-1,-1],"split_conditions":[8.279791E-3,4.1466886E-3,2.9020905E-3,-1.6958758E-2,6.612772E-2,-5.347788E-2,-2.8687145E-3,-6.663794E-3,9.47474E-3,2.3038695E-2,1.4867025E-2,-1.778867E-2,3.972678E-3,-3.3832494E-2,1.1278634E-1,-1.27717955E-2,8.534363E-3,4.9302434E-3,1.6251719E-2,2.5467356E-3,-1.1216438E-2,2.3761315E-2,1.2697777E-3,9.767038E-3,-1.927059E-2,2.200605E-3,1.418584E-2,2.8028345E-2,-1.9994762E-2,-8.32444E-3,2.5329143E-2],"split_indices":[4,3,1,4,1,1,3,3,1,1,3,3,3,3,1,0,0,0,0,0,0,0,0,0,0,0,0,0,0,0,0],"split_type":[0,0,0,0,0,0,0,0,0,0,0,0,0,0,0,0,0,0,0,0,0,0,0,0,0,0,0,0,0,0,0],"sum_hessian":[1.7374613E3,1.0994286E3,6.380328E2,6.042722E2,4.9515637E2,2.8830783E2,3.4972495E2,1.4505925E2,4.5921295E2,4.034878E2,9.166859E1,1.0453232E2,1.837755E2,9.16934E1,2.5803156E2,8.1596306E1,6.346295E1,2.3049365E2,2.287193E2,1.7391093E2,2.2957684E2,2.5202246E1,6.646634E1,4.70832E1,5.744912E1,9.510398E1,8.8671524E1,1.9353108E0,8.975809E1,2.5366798E2,4.363568E0],"tree_param":{"num_deleted":"0","num_feature":"6","num_nodes":"31","size_leaf_vector":"1"}},{"base_weights":[-1.1843457E-2,-2.6617395E-2,6.394375E-1,-8.214921E-2,7.341506E-2,6.3707344E-2,4.778678E-1,3.0065197E-1,-1.0952188E-1,-4.176562E-1,1.03110805E-1,2.4097751E-1,1.0041596E0,5.1577695E-2,5.331702E-3,-8.46E-3,2.6091288E-3,-2.6048688E-2,-2.2673795E-3,1.2364577E-2,-2.2859934E-3,2.3374373E-2,-9.920826E-3,1.6018128E-2,5.6500353E-2],"categories":[],"categories_nodes":[],"categories_segments":[],"categories_sizes":[],"default_left":[0,0,0,0,0,0,0,0,0,0,0,0,0,0,0,0,0,0,0,0,0,0,0,0,0],"id":12,"left_children":[1,3,5,7,9,-1,11,13,15,17,19,21,23,-1,-1,-1,-1,-1,-1,-1,-1,-1,-1,-1,-1],"loss_changes":[1.3737933E1,7.757042E0,2.638915E0,9.439375E0,7.314271E0,0E0,3.1048002E0,8.423296E0,8.100853E0,1.0776849E0,1.0117989E1,2.0661497E0,3.2785797E-1,0E0,0E0,0E0,0E0,0E0,0E0,0E0,0E0,0E0,0E0,0E0,0E0],"parents":[2147483647,0,0,1,1,2,2,3,3,4,4,6,6,7,7,8,8,9,9,10,10,11,11,12,12],"right_children":[2,4,6,8,10,-1,12,14,16,18,20,22,24,-1,-1,-1,-1,-1,-1,-1,-1,-1,-1,-1,-1],"split_conditions":[4.7763042E-2,8.279791E-3,-1.422434E-1,-3.6490444E-2,-3.258017E-2,6.3707344E-2,1.2418784E-2,-6.663794E-3,1.0745938E-2,3.7770253E-2,5.7718507E-3,-3.792918E-2,5.009537E-2,5.1577695E-2,5.331702E-3,-8.46E-3,2.6091288E-3,-2.6048688E-2,-2.2673795E-3,1.2364577E-2,-2.2859934E-3,2.3374373E-2,-9.920826E-3,1.6018128E-2,5.6500353E-2],"split_indices":[4,4,1,4,3,0,1,3,3,4,3,1,4,0,0,0,0,0,0,0,0,0,0,0,0],"split_type":[0,0,0,0,0,0,0,0,0,0,0,0,0,0,0,0,0,0,0,0,0,0,0,0,0],"sum_hessian":[1.4249961E3,1.3943257E3,3.0670357E1,8.967079E2,4.9761777E2,4.8259754E0,2.5844381E1,5.9174953E1,8.3753296E2,2.7630722E1,4.6998706E2,1.8827688E1,7.016692E0,1.1507446E1,4.7667507E1,6.117253E2,2.2580771E2,2.1316092E1,6.3146296E0,2.3838673E2,2.3160033E2,1.2381186E1,6.446503E0,1.6417617E0,5.3749304E0],"tree_param":{"num_deleted":"0","num_feature":"6","num_nodes":"25","size_leaf_vector":"1"}},{"base_weights":[5.5247205E-3,1.9211166E-1,-1.3973568E-1,-9.2088774E-2,2.7479038E-1,-9.317572E-2,-2.3472318E-1,1.5725145E-2,-2.3278898E-1,5.85962E-1,1.58733E-1,-3.4448564E-2,-2.198965E-1,-2.648347E-1,1.09647386E-1,-3.7058096E-3,1.6275177E-2,3.9343084E-3,-1.878773E-2,5.9539586E-2,2.3378206E-2,2.9650105E-3,1.6153226E-2,-4.022536E-3,8.284668E-3,-3.5869845E-3,-1.9433558E-2,-1.8271057E-2,-7.845602E-3,1.7639594E-2,-2.2755422E-2],"categories":[],"categories_nodes":[],"categories_segments":[],"categories_sizes":[],"default_left":[0,0,0,0,0,0,0,0,0,0,0,0,0,0,0,0,0,0,0,0,0,0,0,0,0,0,0,0,0,0,0],"id":13,"left_children":[1,3,5,7,9,11,13,15,17,19,21,23,25,27,29,-1,-1,-1,-1,-1,-1,-1,-1,-1,-1,-1,-1,-1,-1,-1,-1],"loss_changes":[2.4044884E1,9.149776E0,2.1842804E0,1.3425071E0,1.0779402E1,2.4959579E0,1.7236891E0,1.440891E0,1.7374456E0,5.2731724E0,3.5862207E0,2.140701E0,2.6313396E0,1.5772676E0,2.062133E0,0E0,0E0,0E0,0E0,0E0,0E0,0E0,0E0,0E0,0E0,0E0,0E0,0E0,0E0,0E0,0E0],"parents":[2147483647,0,0,1,1,2,2,3,3,4,4,5,5,6,6,7,7,8,8,9,9,10,10,11,11,12,12,13,13,14,14],"right_children":[2,4,6,8,10,12,14,16,18,20,22,24,26,28,30,-1,-1,-1,-1,-1,-1,-1,-1,-1,-1,-1,-1,-1,-1,-1,-1],"split_conditions":[9.923571E-3,-5.462242E-3,1.694142E-2,2E0,2E0,1.3741333E-2,4.3693107E-2,9.407111E-3,6.473332E-3,-1.7738907E-2,5.018211E-3,3.061719E-2,1.2559386E-2,4.351633E-3,8.019199E-3,-3.7058096E-3,1.6275177E-2,3.9343084E-3,-1.878773E-2,5.9539586E-2,2.3378206E-2,2.9650105E-3,1.6153226E-2,-4.022536E-3,8.284668E-3,-3.5869845E-3,-1.9433558E-2,-1.8271057E-2,-7.845602E-3,1.7639594E-2,-2.2755422E-2],"split_indices":[2,0,2,5,5,4,4,2,2,4,4,0,2,0,0,0,0,0,0,0,0,0,0,0,0,0,0,0,0,0,0],"split_type":[0,0,0,0,0,0,0,0,0,0,0,0,0,0,0,0,0,0,0,0,0,0,0,0,0,0,0,0,0,0,0],"sum_hessian":[8.851538E2,3.8731952E2,4.9783426E2,8.725945E1,3.0006006E2,3.354083E2,1.6242598E2,4.9906208E1,3.735324E1,8.041186E1,2.196482E2,2.3006119E2,1.05347115E2,1.4957794E2,1.2848035E1,3.9276157E1,1.0630052E1,1.1892658E1,2.5460583E1,1.1681242E1,6.873062E1,1.3769397E2,8.195423E1,1.8755106E2,4.251013E1,5.68591E1,4.848801E1,7.6185425E1,7.339252E1,9.243673E0,3.6043618E0],"tree_param":{"num_deleted":"0","num_feature":"6","num_nodes":"31","size_leaf_vector":"1"}},{"base_weights":[-7.855208E-3,4.615286E-2,-1.0079807E-1,1.0461986E-1,-9.421403E-2,-7.452147E-2,-4.3124855E-1,-2.0478563E-1,1.3267678E-1,-1.2938674E-1,1.4717473E-1,4.987176E-1,-1.03120774E-1,-1.3619412E-1,-6.1902964E-1,-3.4413267E-2,9.914256E-3,3.550397E-3,1.2110545E-2,3.2051336E-2,-7.664156E-3,-4.185234E-2,1.1467204E-2,-1.3251975E-3,2.8534038E-2,-1.0006346E-2,-1.8418525E-4,-3.8592335E-2,6.0182367E-5,-2.4564285E-2,-4.3285023E-2],"categories":[],"categories_nodes":[],"categories_segments":[],"categories_sizes":[],"default_left":[0,0,0,0,0,0,0,0,0,0,0,0,0,0,0,0,0,0,0,0,0,0,0,0,0,0,0,0,0,0,0],"id":14,"left_children":[1,3,5,7,9,11,13,15,17,19,21,23,25,27,29,-1,-1,-1,-1,-1,-1,-1,-1,-1,-1,-1,-1,-1,-1,-1,-1],"loss_changes":[8.77299E0,9.082449E0,5.5450726E0,6.8061085E0,2.7834473E0,9.825703E0,2.525488E0,1.2865342E1,4.823183E0,5.3399625E0,3.5786572E0,1.0924349E0,5.484934E0,1.712846E0,4.7281933E-1,0E0,0E0,0E0,0E0,0E0,0E0,0E0,0E0,0E0,0E0,0E0,0E0,0E0,0E0,0E0,0E0],"parents":[2147483647,0,0,1,1,2,2,3,3,4,4,5,5,6,6,7,7,8,8,9,9,10,10,11,11,12,12,13,13,14,14],"right_children":[2,4,6,8,10,12,14,16,18,20,22,24,26,28,30,-1,-1,-1,-1,-1,-1,-1,-1,-1,-1,-1,-1,-1,-1,-1,-1],"split_conditions":[8.279791E-3,1.0214916E-2,4.3693107E-2,-2.8827846E-2,3.4643453E-2,-3.258017E-2,-1.8736042E-2,-6.663794E-3,1.2025626E-2,-5.078036E-2,-5.4491367E-2,-6.723578E-2,5.6612715E-3,-1.3225272E-1,2.3228996E-2,-3.4413267E-2,9.914256E-3,3.550397E-3,1.2110545E-2,3.2051336E-2,-7.664156E-3,-4.185234E-2,1.1467204E-2,-1.3251975E-3,2.8534038E-2,-1.0006346E-2,-1.8418525E-4,-3.8592335E-2,6.0182367E-5,-2.4564285E-2,-4.3285023E-2],"split_indices":[4,3,4,4,3,3,0,3,0,4,4,0,3,3,0,0,0,0,0,0,0,0,0,0,0,0,0,0,0,0,0],"split_type":[0,0,0,0,0,0,0,0,0,0,0,0,0,0,0,0,0,0,0,0,0,0,0,0,0,0,0,0,0,0,0],"sum_hessian":[1.7457979E3,1.1044928E3,6.413051E2,7.7989703E2,3.2459573E2,5.9520166E2,4.610345E1,6.431761E1,7.155794E2,2.8371906E2,4.0876667E1,2.7502798E1,5.6769885E2,1.8601227E1,2.7502226E1,2.8920353E1,3.5397255E1,4.5887585E2,2.5670355E2,7.758595E0,2.7596048E2,2.4418173E0,3.843485E1,3.3903186E0,2.4112478E1,2.8684943E2,2.8084943E2,2.4853728E0,1.6115852E1,2.0089895E1,7.4123306E0],"tree_param":{"num_deleted":"0","num_feature":"6","num_nodes":"31","size_leaf_vector":"1"}},{"base_weights":[2.7661019E-3,-6.470747E-2,2.1248262E-1,-1.3020168E-1,-7.206668E-3,2.2792907E-1,-2.8591666E-2,4.104258E-1,-1.4361073E-1,2.0619027E-1,-3.7122507E-2,2.4162856E-1,-2.8444437E-2,-2.5963098E-2,3.8990702E-2,-5.1093E-3,-1.3984776E-2,1.668196E-2,-8.524685E-3,-1.3544725E-2,-8.315865E-4,7.1027834E-4,1.34000955E-2],"categories":[],"categories_nodes":[],"categories_segments":[],"categories_sizes":[],"default_left":[0,0,0,0,0,0,0,0,0,0,0,0,0,0,0,0,0,0,0,0,0,0,0],"id":15,"left_children":[1,3,5,7,9,11,-1,13,15,17,19,21,-1,-1,-1,-1,-1,-1,-1,-1,-1,-1,-1],"loss_changes":[2.0192326E1,4.0650334E0,4.338498E0,3.7175817E0,3.6846342E0,3.8637428E0,0E0,4.6886673E0,2.7518063E0,3.4639928E0,2.419335E0,2.0132446E0,0E0,0E0,0E0,0E0,0E0,0E0,0E0,0E0,0E0,0E0,0E0],"parents":[2147483647,0,0,1,1,2,2,3,3,4,4,5,5,7,7,8,8,9,9,10,10,11,11],"right_children":[2,4,6,8,10,12,-1,14,16,18,20,22,-1,-1,-1,-1,-1,-1,-1,-1,-1,-1,-1],"split_conditions":[1.5500224E-2,2.0004006E-2,5.847621E-2,-5.6660287E-2,-6.5458207E-3,1.5243608E-1,-2.8591666E-2,1.2460142E-2,1.0791311E-2,1.2197626E-2,4.878862E-3,-5.309177E-2,-2.8444437E-2,-2.5963098E-2,3.8990702E-2,-5.1093E-3,-1.3984776E-2,1.668196E-2,-8.524685E-3,-1.3544725E-2,-8.315865E-4,7.1027834E-4,1.34000955E-2],"split_indices":[2,1,2,0,0,1,0,2,0,2,2,0,0,0,0,0,0,0,0,0,0,0,0],"split_type":[0,0,0,0,0,0,0,0,0,0,0,0,0,0,0,0,0,0,0,0,0,0,0],"sum_hessian":[1.4250151E3,1.0786613E3,3.4635388E2,5.0368866E2,5.7497266E2,3.4036014E2,5.993725E0,1.1473916E1,4.9221472E2,6.9969666E1,5.0500296E2,3.3529233E2,5.0678344E0,3.1472034E0,8.326713E0,3.786907E2,1.13524025E2,5.2366146E1,1.7603521E1,3.9712852E1,4.652901E2,3.5001926E1,3.0029037E2],"tree_param":{"num_deleted":"0","num_feature":"6","num_nodes":"23","size_leaf_vector":"1"}},{"base_weights":[1.1642746E-2,2.0676668E-1,-1.3677226E-1,2.9834487E-2,3.4464428E-1,-5.05233E-1,-1.19805776E-1,-2.2207142E-3,9.863102E-1,6.6952455E-1,2.2355671E-1,-2.740494E-2,-2.3790996E-3,-3.0986259E-2,-1.8729204E-1,1.7100148E-2,-2.2036221E-3,5.140343E-3,6.18548E-2,2.7762203E-2,8.038221E-2,5.038909E-3,2.1057822E-2,3.5126705E-3,-1.0315131E-2,-1.30149815E-2,-2.999595E-3],"categories":[],"categories_nodes":[],"categories_segments":[],"categories_sizes":[],"default_left":[0,0,0,0,0,0,0,0,0,0,0,0,0,0,0,0,0,0,0,0,0,0,0,0,0,0,0],"id":16,"left_children":[1,3,5,7,9,11,13,15,17,19,21,-1,-1,23,25,-1,-1,-1,-1,-1,-1,-1,-1,-1,-1,-1,-1],"loss_changes":[2.55229E1,9.277607E0,3.0691519E0,5.1482677E0,8.264383E0,4.0014887E-1,2.8707848E0,2.3690476E0,1.0792494E0,5.279619E0,3.7741485E0,0E0,0E0,3.713386E0,2.5169945E0,0E0,0E0,0E0,0E0,0E0,0E0,0E0,0E0,0E0,0E0,0E0,0E0],"parents":[2147483647,0,0,1,1,2,2,3,3,4,4,5,5,6,6,7,7,8,8,9,9,10,10,13,13,14,14],"right_children":[2,4,6,8,10,12,14,16,18,20,22,-1,-1,24,26,-1,-1,-1,-1,-1,-1,-1,-1,-1,-1,-1,-1],"split_conditions":[9.923571E-3,4.191181E-3,-5.938451E-2,3.332914E-2,2E0,4.3693107E-2,1.226436E-3,-2.1641916E-2,-1.4557371E-2,9.649722E-3,4.6903277E-3,-2.740494E-2,-2.3790996E-3,1.6011892E-2,3.061719E-2,1.7100148E-2,-2.2036221E-3,5.140343E-3,6.18548E-2,2.7762203E-2,8.038221E-2,5.038909E-3,2.1057822E-2,3.5126705E-3,-1.0315131E-2,-1.30149815E-2,-2.999595E-3],"split_indices":[2,0,0,4,5,4,0,4,0,2,4,0,0,2,0,0,0,0,0,0,0,0,0,0,0,0,0],"split_type":[0,0,0,0,0,0,0,0,0,0,0,0,0,0,0,0,0,0,0,0,0,0,0,0,0,0,0],"sum_hessian":[8.793598E2,3.797294E2,4.996304E2,1.6684325E2,2.1288614E2,2.0726873E1,4.7890353E2,1.6239833E2,4.444918E0,5.6572304E1,1.5631384E2,1.8771051E1,1.9558225E0,2.0740039E2,2.7150314E2,1.6827023E1,1.4557132E2,1.2944802E0,3.1504378E0,5.1848106E1,4.7241993E0,9.7341034E1,5.897281E1,1.3185663E2,7.554377E1,1.7188249E2,9.962064E1],"tree_param":{"num_deleted":"0","num_feature":"6","num_nodes":"27","size_leaf_vector":"1"}},{"base_weights":[3.0652785E-3,-1.01230554E-1,3.4839343E-2,-3.9563432E-2,-5.227538E-1,7.468149E-2,-5.2916627E-2,-5.283709E-1,2.2558568E-3,-3.794862E-2,-6.8903524E-1,2.6087213E-1,2.4674494E-2,4.2177203E-1,-8.870932E-2,-4.268001E-2,-1.6672537E-2,6.6571757E-3,-6.7100883E-3,1.2982312E-2,-1.2427921E-2,-1.0271048E-2,-3.8931247E-2,2.4811342E-2,5.061651E-3,3.6513064E-2,8.2621205E-4,2.872532E-2,2.877472E-3,-8.479689E-3,4.1726843E-4],"categories":[],"categories_nodes":[],"categories_segments":[],"categories_sizes":[],"default_left":[0,0,0,0,0,0,0,0,0,0,0,0,0,0,0,0,0,0,0,0,0,0,0,0,0,0,0,0,0,0,0],"id":17,"left_children":[1,3,5,7,9,11,13,15,17,19,21,23,25,27,29,-1,-1,-1,-1,-1,-1,-1,-1,-1,-1,-1,-1,-1,-1,-1,-1],"loss_changes":[5.726095E0,1.0467806E1,4.634363E0,7.2187157E0,4.1185513E0,8.477921E0,7.0732555E0,1.479672E0,5.844887E0,9.5385015E-1,1.4962292E0,7.194331E0,4.125084E0,1.5918221E0,3.0307999E0,0E0,0E0,0E0,0E0,0E0,0E0,0E0,0E0,0E0,0E0,0E0,0E0,0E0,0E0,0E0,0E0],"parents":[2147483647,0,0,1,1,2,2,3,3,4,4,5,5,6,6,7,7,8,8,9,9,10,10,11,11,12,12,13,13,14,14],"right_children":[2,4,6,8,10,12,14,16,18,20,22,24,26,28,30,-1,-1,-1,-1,-1,-1,-1,-1,-1,-1,-1,-1,-1,-1,-1,-1],"split_conditions":[7.623268E-3,7.335409E-3,1.5500224E-2,-1.2155855E-2,-5.2913823E-3,1E0,-6.723578E-2,-2.0182425E-2,4.9872524E-3,-1.6272387E-2,-4.4425363E-3,1.0937979E-2,-4.3522228E-2,2.702945E-2,1E0,-4.268001E-2,-1.6672537E-2,6.6571757E-3,-6.7100883E-3,1.2982312E-2,-1.2427921E-2,-1.0271048E-2,-3.8931247E-2,2.4811342E-2,5.061651E-3,3.6513064E-2,8.2621205E-4,2.872532E-2,2.877472E-3,-8.479689E-3,4.1726843E-4],"split_indices":[2,2,2,3,0,5,0,3,3,0,3,2,3,2,5,0,0,0,0,0,0,0,0,0,0,0,0,0,0,0,0],"split_type":[0,0,0,0,0,0,0,0,0,0,0,0,0,0,0,0,0,0,0,0,0,0,0,0,0,0,0,0,0,0,0],"sum_hessian":[1.7258365E3,4.0249454E2,1.323342E3,3.5208044E2,5.0414074E1,9.102348E2,4.131073E2,2.6830915E1,3.2524954E2,1.3188961E1,3.7225113E1,1.918192E2,7.184156E2,2.8209139E1,3.8489813E2,8.788257E0,1.804266E1,1.6602534E2,1.592242E2,5.3692703E0,7.8196907E0,6.332821E0,3.0892292E1,7.6672745E1,1.1514646E2,7.191945E0,7.1122363E2,1.9468006E1,8.741133E0,2.0953021E2,1.7536794E2],"tree_param":{"num_deleted":"0","num_feature":"6","num_nodes":"31","size_leaf_vector":"1"}}]},"name":"gbtree"},"learner_model_param":{"base_score":"[-3.8951874E-2,-6.8194604E-1,7.208979E-1]","boost_from_average":"1","num_class":"3","num_feature":"6","num_target":"1"},"objective":{"name":"multi:softprob","softmax_multiclass_param":{"num_class":"3"}}},"version":[3,2,0]}